const float conv1_weight[16][96][3][3] = {
   {{{1.3027018, 0.96389335, 0.07060049},
     {0.750125, -1.0914255, -1.3041826},
     {1.3019397, 0.6315744, 0.90447545}},
    {{1.3036301, 1.3031713, 1.3018225},
     {0.52046573, -0.00820816, -1.3039058},
     {1.3021967, 0.25987265, -0.08215463}},
    {{0.49147692, 1.3011253, 1.304085},
     {-0.97893155, -0.27217364, -1.0491537},
     {-0.0013401656, -1.3023541, -1.2155421}},
    {{0.7907116, 1.3025091, 1.302889},
     {-0.36561084, 0.5921841, -0.45155004},
     {1.3035582, 0.44015947, -0.03449479}},
    {{0.59194046, 1.3032912, 1.3036247},
     {-0.9699719, -0.4242621, -1.3036921},
     {1.3020451, 0.19261223, 0.15052664}},
    {{-0.21472159, 1.3046368, 1.3024606},
     {-0.21373385, 0.42442006, -0.3471315},
     {1.3037889, 0.000236481, 0.1896186}},
    {{0.4659603, 1.3015367, 1.3011951},
     {-0.22678827, 0.8098908, -0.2128149},
     {0.120543815, -0.03023326, 0.022430824}},
    {{0.12223338, 1.302255, 1.3048416},
     {0.28545418, 1.0863233, 0.03893118},
     {0.0065440573, 0.06042939, -0.23611847}},
    {{0.06612905, 1.3051734, 1.3025725},
     {-0.3022197, 0.7396979, -0.8106778},
     {0.6341224, 0.5969828, -0.030225731}},
    {{-0.0001899506, 1.3036948, 0.9537784},
     {6.352181e-05, 1.3049425, -2.6355663e-06},
     {1.001851, -0.07814483, 0.49753106}},
    {{-0.008563847, 1.3033711, 0.021378769},
     {0.0029990345, 1.2074662, -0.13358252},
     {0.7765227, 0.62621856, 0.50007236}},
    {{-0.026273878, 1.1898575, -0.14514981},
     {0.023129992, 1.3022035, 1.0735757e-05},
     {-0.0010994439, -0.28573263, -0.017786631}},
    {{0.34641805, 1.3001919, 0.023865195},
     {0.00019014315, 1.0360585, -0.510345},
     {0.4138337, 1.3363717e-05, -0.08974542}},
    {{0.35189167, 1.3023211, 0.105684444},
     {-0.37906468, 0.9860538, -0.00014791745},
     {-0.0025274898, 0.17916012, 0.046793796}},
    {{-0.13510767, 1.303809, 0.6844685},
     {-0.05433838, 1.2786623, 0.027411046},
     {0.09283323, 0.061904985, 0.064187996}},
    {{0.32715687, 1.3003476, 0.5296005},
     {-0.13021691, 0.7608984, -0.025574898},
     {0.0056588124, 1.1539082e-08, 0.03260565}},
    {{0.3135088, 1.3088379, 0.40717617},
     {-0.3561699, 1.0389897, -0.2929321},
     {0.029130396, 0.060584154, 0.19679163}},
    {{2.8349461e-06, 1.3047427, 0.58956665},
     {0.005851272, 1.1934932, 0.34645113},
     {4.7336048e-08, -0.05643927, -0.043914292}},
    {{-0.18890691, 0.7508827, 0.4891818},
     {-0.028032664, 0.29669747, -0.14884163},
     {0.70299906, 1.1090536, 0.22898501}},
    {{0.0731629, 1.3017781, 1.3039982},
     {-0.31624052, 0.4324021, 0.23957478},
     {0.1975451, -0.08866268, 0.042928055}},
    {{-0.07401311, 0.73832315, 0.8168017},
     {-0.12293131, 0.9388917, 0.023820367},
     {-0.23020662, 0.8267957, 0.13595778}},
    {{-0.007659777, 1.3008648, 1.1684837},
     {-0.028955687, 1.3017317, -0.19104712},
     {0.03754803, 0.40124655, -0.18457381}},
    {{-0.17678814, 1.3013166, 1.0968201},
     {-0.3124947, 1.0829505, -0.9704704},
     {-0.0004346426, 0.4997597, -0.059083797}},
    {{3.576523e-05, 1.3009353, 1.1287159},
     {-0.04234065, 1.1460493, -0.51365024},
     {0.1366889, -0.1551599, -0.26834297}},
    {{0.86675054, 1.3044115, 1.3040125},
     {4.5270795e-07, 1.301552, 0.13339728},
     {0.35282812, 0.37745747, -0.3560584}},
    {{0.19811572, 1.3026611, 1.3074712},
     {0.3179696, 1.3071685, 0.025682732},
     {0.69886494, 0.40780607, -0.030341769}},
    {{-0.060017176, 1.3021976, 1.3031454},
     {0.062363926, 1.3018804, 0.6400972},
     {0.03399258, 0.73368174, 0.5906891}},
    {{0.06796255, 1.3029335, 1.3026987},
     {-0.10733132, 1.1524942, 0.10643505},
     {1.3019232, 0.66109765, 0.48410738}},
    {{0.30557236, 1.3007162, 1.3057553},
     {-0.5293146, 0.66759324, 0.09470796},
     {-0.07952073, -1.1391588, -0.8339914}},
    {{1.3026705, 1.3019401, 1.3019792},
     {-1.1282152, 0.12739024, -1.0123322},
     {1.1512135, 0.13167219, 0.20815967}},
    {{1.3033701, 1.3022567, 1.3016926},
     {-0.953759, -0.116384596, -0.4307908},
     {0.49823368, -0.21418615, -0.29313728}},
    {{0.2416416, 1.3058954, 0.7083297},
     {1.0962255, 0.21654478, 0.0013144172},
     {1.0854914, 0.016942602, -0.01031494}},
    {{1.3050683, 0.88113374, 0.61210704},
     {-0.05852909, -1.3038987, -1.300641},
     {1.3019859, -0.7940486, 0.033801485}},
    {{1.3010939, 1.3002564, 1.3058472},
     {-1.2374179, -1.3039849, -1.3015028},
     {-0.78655326, -1.3023361, -1.3009719}},
    {{-0.09576941, 0.3680193, 0.7871677},
     {-1.3047161, -1.3021955, -1.3029652},
     {-1.3053675, -1.3064269, -1.3024108}},
    {{0.03839288, 0.9149126, 0.96613777},
     {-1.3037277, -1.3031973, -1.3013853},
     {-1.3061539, -1.3013145, -1.304628}},
    {{-1.3022047, -0.050569836, 0.022639308},
     {-1.3030988, -1.3060113, -1.3013618},
     {-1.3042257, -1.3023783, -1.3045859}},
    {{-1.3018947, -0.6919013, 0.22763284},
     {-1.3051283, -1.3049581, -1.3070089},
     {-1.3021724, -1.3037689, -1.3050632}},
    {{-1.3047329, 8.913075e-08, 0.6547178},
     {-1.303671, -1.303465, -1.3043132},
     {-1.3022165, -1.3021414, -1.3010751}},
    {{-1.3046551, -1.0362409, 7.728675e-06},
     {-1.3039635, -1.3050267, -1.3032273},
     {-0.94390184, -1.3010318, -1.1504499}},
    {{-1.3027438, -1.0965878, 0.10667526},
     {-1.3023473, -1.3019205, -1.3074815},
     {-1.3048844, -1.3018047, -0.9317201}},
    {{-0.60482156, -0.13787502, 0.43181437},
     {-1.3013059, -1.3026335, -1.3008232},
     {-1.3046261, -1.3064005, -0.62050134}},
    {{-0.5302206, -0.44049636, 0.24919741},
     {-1.3008189, -1.3014724, -1.3034216},
     {-0.3781457, -1.3022436, 0.011309827}},
    {{-1.247295, -0.31825143, -0.022214713},
     {-1.3039699, -1.304036, -1.3047507},
     {-0.6029438, -1.3003536, -0.18270442}},
    {{-1.3030539, -0.4302521, 0.44532612},
     {-1.3011959, -1.3023647, -1.3019108},
     {0.07479432, -1.3040249, -0.20121893}},
    {{-1.3055326, -0.42350653, -0.27052668},
     {-1.3020151, -1.303244, -1.3023292},
     {0.01041402, -0.9775103, 0.33956292}},
    {{-1.302504, -0.12256462, -0.01054084},
     {-1.3016481, -1.304376, -1.303685},
     {-0.66938615, -0.8675476, 0.06373343}},
    {{-0.89022666, 0.0138605125, -0.062435202},
     {-1.3011241, -1.3025409, -1.3038071},
     {-0.72014135, -1.3056165, -0.5447592}},
    {{-0.34598437, 0.078415684, 0.23652184},
     {-1.0609665, -1.0241073, -0.22138102},
     {-0.8420967, -1.1110756, -0.4880046}},
    {{-0.47647527, -0.761384, 0.17738448},
     {-1.3013045, -1.197706, -0.295498},
     {-0.30092588, -1.1385268, 0.00014822008}},
    {{-0.16337107, -0.06359919, 0.060168732},
     {-1.3018025, -0.88655496, -0.9228551},
     {-0.48092967, -0.038487263, -0.34324798}},
    {{-0.51190174, -0.42699975, -0.008785602},
     {-0.98206717, -0.93255705, -0.7600944},
     {-0.027248798, 0.2510472, 2.6876485e-05}},
    {{-0.092518985, 0.2343828, 0.592518},
     {-0.20379813, -0.043213837, -0.34121254},
     {-0.54613054, -1.0233042, -0.59551066}},
    {{-0.0330012, 0.17603695, 0.11163194},
     {0.024460947, -0.015618347, -0.35914847},
     {-0.017149325, 0.014678114, 0.027459756}},
    {{0.008498917, -0.016894797, 0.21356665},
     {-0.38147527, -0.9208252, -0.4589475},
     {-0.0020097806, -0.057016164, -0.098237984}},
    {{-0.33058137, -0.42463708, -0.09646252},
     {-1.01125, -1.0602057, -0.6830101},
     {0.011132574, -0.004051635, 0.15916806}},
    {{-0.17043649, 0.853787, 0.2504932},
     {-1.3020766, -0.34710008, -1.0181652},
     {0.12870525, -0.3921257, -0.06626433}},
    {{-0.22894175, 1.1268083, 0.24480046},
     {-1.0211812, -0.6726599, -1.1049035},
     {0.022876188, -1.1031669, 0.19188881}},
    {{0.002452061, 0.89833283, -0.022571236},
     {-1.0668522, -0.64824045, -1.3019494},
     {-0.19923206, -1.303339, -0.6716857}},
    {{-0.463339, 1.30328, 0.5066208},
     {-0.40551698, -0.45710284, -0.7929674},
     {-0.017077891, -1.3050305, -0.7312933}},
    {{0.03274164, 1.3030928, 1.3042446},
     {-1.3041608, -0.32364655, -1.302967},
     {-0.2415065, -1.3006592, -1.302136}},
    {{0.4526033, 1.3028004, 1.3042754},
     {-1.3056912, -1.3048298, -1.3053892},
     {-0.6015253, -1.3031448, -1.3049963}},
    {{0.09068673, 1.3091018, 1.3022927},
     {-1.3055987, -1.3028198, -1.3034941},
     {-0.20896569, -1.3012497, -1.3031958}},
    {{-0.9455676, 0.5619936, 0.22370331},
     {0.07624276, -0.56296825, -1.3006793},
     {0.012080877, -1.3026615, -1.3035682}},
    {{1.3027403, 1.3019042, 1.302113},
     {1.0575342, -0.9632955, -0.93394595},
     {1.3024315, 0.13452636, 0.8710066}},
    {{1.3042202, 1.3072021, 1.3010063},
     {0.66655797, -0.86354256, -1.1238147},
     {1.1544334, -1.2595611, -0.36686996}},
    {{1.3032075, 1.3012347, 1.3063266},
     {0.8118962, 0.38148838, -0.6431614},
     {1.3060033, -0.69685656, 4.861956e-06}},
    {{0.8728738, 1.3027208, 1.3025751},
     {0.007139676, -0.6544309, -1.2386869},
     {0.4266789, -1.303291, -0.3540925}},
    {{0.66797835, 0.9193747, 0.86026806},
     {-0.14911099, -0.5378218, -1.2203386},
     {0.001662589, -0.46368164, 0.020941978}},
    {{0.8382905, 0.28143245, 0.7275163},
     {-0.00053131464, -0.43485218, -0.8080234},
     {0.683521, 0.5656334, 0.8664711}},
    {{0.5934534, 0.626974, 0.6400557},
     {-0.451449, -0.7380175, -1.3052001},
     {0.4228704, 0.23035724, 0.7125348}},
    {{0.69249773, 1.3014002, 1.3019416},
     {-2.88203e-07, 0.051575202, -1.3015951},
     {0.20218539, -0.16569826, 0.22144681}},
    {{0.15872294, 1.3023876, 1.301665},
     {-0.0050349585, 0.45838374, -0.7015112},
     {0.040035892, -0.08445182, -0.0004168988}},
    {{0.028624985, 1.2607807, 0.93073076},
     {0.005787041, 0.77299577, 0.06165855},
     {0.16846015, 0.041226838, 0.36419627}},
    {{0.032681346, 0.97256595, 0.11756581},
     {-0.13977619, 0.03029405, -1.3052438},
     {-0.20128852, 0.61732966, -0.44124362}},
    {{0.7866788, 1.0216161, 0.14417173},
     {-0.021197913, 0.0023605027, -1.0727227},
     {1.3026662, 0.06261449, -0.0047360645}},
    {{0.00032941916, 0.37876758, -0.034807235},
     {-5.3148786e-05, -0.21040605, -0.83604884},
     {0.5312916, -0.015395477, 1.947272e-07}},
    {{0.62178695, 1.3041439, 0.030540857},
     {0.049560986, 0.00020023907, -0.83416754},
     {-8.211069e-07, -0.47877648, 0.017601812}},
    {{0.2385899, 1.3039111, 0.04007357},
     {-0.10796325, 0.011717758, -1.1548531},
     {-0.08337089, -0.63714015, -0.5594501}},
    {{0.02538338, 0.5577939, 0.15659377},
     {-0.03411109, -0.4177232, -1.3027055},
     {0.96685964, 0.47577813, 0.63606775}},
    {{0.5420328, 1.3017488, 0.55666536},
     {0.0099782, 0.67974156, -0.12872268},
     {0.68567204, 0.043288242, -0.0046409676}},
    {{-0.00820132, 0.24904707, 0.0018715663},
     {0.22197883, 0.033545483, -0.18326893},
     {0.69144577, 0.104125, 0.040800687}},
    {{-0.07239839, 0.006800839, -0.08641301},
     {-0.037149478, -0.21178158, -0.17654271},
     {0.4500065, -0.024670124, -0.10266313}},
    {{0.07221008, 0.9336458, 0.6847577},
     {-0.44559282, 0.08355885, 0.16525598},
     {-0.07529787, 0.071238525, 0.32294005}},
    {{0.16616471, 0.6509573, 0.28398347},
     {-0.73744965, -0.036675204, -0.2573489},
     {0.30025688, -0.23101085, -0.8684145}},
    {{-6.2797824e-07, 0.3821877, -0.040501248},
     {0.083559744, -0.009705226, 0.25266403},
     {1.0383319, -0.8528009, -0.39513803}},
    {{0.21664704, 0.73797995, 0.009945303},
     {0.062797986, 0.0781988, -0.27051026},
     {0.58182395, -0.059110567, 0.036688734}},
    {{0.8352575, 1.1679817, 0.79789585},
     {0.00011745494, 0.37798533, -0.09909968},
     {0.017076697, -0.5927015, -0.00053105975}},
    {{0.19691277, 1.130829, 0.44559532},
     {-0.6436018, -0.112767726, -0.5345609},
     {-0.10748896, -0.9322096, -0.8607904}},
    {{-0.5570113, 0.6213639, -0.05547183},
     {-0.76858175, -0.7385461, -0.7772309},
     {0.4254046, -0.6636173, 0.059664775}},
    {{-0.90664566, 0.95206934, 0.010375509},
     {-0.5931873, 0.30228877, -0.34418765},
     {-0.023341525, -0.73908013, 0.00051525753}},
    {{-0.001984879, 1.3039796, 0.58983445},
     {-0.32327607, -0.2738187, -0.50859165},
     {0.44505224, -1.2112235, -0.23581359}},
    {{1.2380661, 1.304095, 1.3055015},
     {0.015348443, -0.9329959, -0.9281988},
     {1.3003553, -1.3025087, -0.9888197}},
    {{1.3035059, 1.3053664, 1.3005997},
     {-1.3014954, -1.3021135, -1.3003956},
     {0.9497431, -1.3034897, -1.3069743}},
    {{1.3027761, 1.3019235, 1.3013335},
     {0.29854938, -0.49923664, -0.49648878},
     {0.8004684, -1.3020052, -1.3056346}},
    {{0.5717718, 1.1362048, 0.6443638},
     {1.3015773, 1.3042973, 1.1656115},
     {1.3021533, -0.31730023, -0.3637621}}},
   {{{1.3046364, 1.302808, 1.3004658},
     {-1.3002429, -1.3043393, 0.7618813},
     {1.3051101, 1.3052019, 1.3012096}},
    {{-0.4900506, 1.0032668, 0.3888643},
     {-1.300946, -1.3046141, -1.2344314},
     {1.3007035, 0.9306728, 1.3039726}},
    {{-0.07998365, 1.3010317, 0.49548736},
     {-1.3028551, -1.3038117, -1.3009567},
     {-0.28062457, 1.1372563, 0.21617748}},
    {{-0.27715203, 1.3021911, 0.00366734},
     {-1.3023412, -1.3028845, -1.3017805},
     {0.03632373, 0.22675128, 0.0025650277}},
    {{0.017894099, 1.302227, 0.16635972},
     {-1.3032031, -1.3015785, -1.302702},
     {0.30351698, 1.3054937, 1.3016481}},
    {{-0.3001635, 1.3035307, 5.0302776e-07},
     {-1.306855, -1.3025097, -1.3025513},
     {-7.2609095e-05, 0.87087363, 0.626616}},
    {{-0.3342393, 1.3041508, 0.008358989},
     {-1.304507, -1.3045669, -1.3020735},
     {0.00012559495, 0.54384094, -0.60199696}},
    {{0.14084525, -0.031072628, -0.8301297},
     {-0.066193454, -1.3031143, -1.3027718},
     {0.0005607412, 0.6317555, -0.059396323}},
    {{-0.06404191, 0.1091523, -0.0057212496},
     {-0.39029604, -1.3055769, -1.3010981},
     {0.05267738, 0.36011046, 0.30227685}},
    {{-0.22689062, 0.74635005, 0.026989961},
     {-0.46721566, -1.3037769, -0.6129554},
     {0.12983268, 0.7244698, -0.0004820714}},
    {{0.53527147, 0.98036426, 0.62722397},
     {-0.13715787, -1.3030145, -0.24229997},
     {1.3014506, 0.20314413, 0.63433737}},
    {{-0.037591707, 1.3039452, -0.0033020056},
     {-0.40989015, -1.304623, -0.08701189},
     {0.6553715, 0.0822404, 0.050208885}},
    {{-0.2233972, 0.025333855, -0.023966242},
     {-0.00010033023, -1.3037301, -0.0063593597},
     {0.52542615, 0.40778467, 0.29301742}},
    {{-0.02688848, 0.6171296, 0.02289871},
     {-1.3012072, -1.3042506, -0.25768363},
     {-3.740915e-07, 0.79431254, -0.5200119}},
    {{-0.23043966, 0.43991452, -0.78060526},
     {-0.96096146, -1.3027515, -0.21913444},
     {0.29599246, 0.8830591, -1.62446e-07}},
    {{0.044037268, 0.036362212, 0.00017897945},
     {-0.03959414, -1.3012424, -0.53205854},
     {0.25814652, 0.0054678977, 0.2068438}},
    {{0.00015303596, -0.11861144, -0.0069102906},
     {0.00020002095, -1.3006282, -1.0230923},
     {6.21472e-08, 0.94984883, -0.28153178}},
    {{0.89037246, -1.4114964e-07, 0.43244466},
     {-0.023640815, -1.3036429, -0.10844693},
     {1.0579273, 1.2566559, 0.19887064}},
    {{0.42880392, 0.952298, -0.07012869},
     {-0.6698492, -1.3022661, -0.6484773},
     {1.3036468, 1.3022164, -0.0065677846}},
    {{0.018216118, 0.15038486, 0.19830847},
     {0.005381202, -1.3055762, -0.7166315},
     {0.6170184, 1.3055108, 0.34552628}},
    {{0.018991731, 0.03368452, 0.15280952},
     {-0.24186704, -1.3049928, -0.6401567},
     {-0.123253495, 0.08495085, -0.83934253}},
    {{0.07938342, 0.74040097, -0.18288279},
     {-0.028565258, -1.302068, 0.023934927},
     {0.00047405402, 0.33552438, -0.26110345}},
    {{0.09000152, 1.3020707, -0.0010638739},
     {-0.055069137, -1.3046106, -0.30365026},
     {0.6398781, 0.667845, 0.5999254}},
    {{-0.057773344, 1.3029021, -0.4561103},
     {-0.96283585, -1.3023331, -0.50010014},
     {0.19343203, 1.0102226, -0.010659386}},
    {{-0.12595728, 1.302784, 0.39001486},
     {-0.8346979, -1.3006628, -1.3071412},
     {-0.011438486, 4.2126135e-06, -0.3548592}},
    {{9.634827e-05, 1.3022465, 0.042278793},
     {-0.14743438, -1.3018792, -1.1295338},
     {0.015143571, 1.039007, 0.39036435}},
    {{-0.022703033, 1.3064301, -0.011985629},
     {-0.85937876, -1.3040776, -0.97570515},
     {-0.22359699, 0.7493622, -0.10487831}},
    {{2.0178979e-07, 1.3026733, 0.0068123103},
     {-1.3070372, -1.3043314, -1.3042365},
     {0.62135655, 1.3031185, 0.0040747006}},
    {{1.303471, 1.3022571, 1.3032566},
     {-1.3022432, -1.3009856, -1.3039678},
     {-0.10529188, -0.00085337186, -0.66852474}},
    {{0.00018709447, 1.3074036, -0.13779123},
     {-1.304022, -1.3041298, -1.3065429},
     {-0.42798173, 1.303626, -1.170739}},
    {{0.0008210531, 0.01779562, 0.008403073},
     {-1.3036416, -1.3024615, -1.3015057},
     {0.35633117, 0.90375817, -0.017059717}},
    {{-1.3009584, -1.173786, -0.29691213},
     {-0.27590916, -0.9504366, -0.37833086},
     {-1.3037981, -1.3032254, -1.3023348}},
    {{1.304225, 1.3048968, 1.3081663},
     {-1.297518, -1.3027476, -0.22328956},
     {0.6330924, 1.3053254, 1.3037549}},
    {{0.1129137, 1.0942854, 1.3034679},
     {-1.3015586, -1.3013575, -1.3022345},
     {-0.0151648, 1.3024187, 1.3039938}},
    {{1.2476566, 1.3034333, 1.3032004},
     {-1.3033744, -1.30142, -1.3019725},
     {0.00024784775, 1.3032829, 1.3040442}},
    {{-0.0024863528, 1.3060831, 1.3015634},
     {-1.3069346, -1.3027084, -0.50579566},
     {-0.19730112, 0.07002227, 1.3015821}},
    {{-0.025458839, 1.3016498, 0.0018529376},
     {-1.3021299, -1.3020301, -1.0135814},
     {2.7546212e-05, 1.3049746, 1.3045754}},
    {{0.07383778, 1.3044901, 1.3046242},
     {-1.3032209, -1.3036429, 0.049067225},
     {-1.3044001, -0.0017527536, 0.050493203}},
    {{-0.004618567, 1.0738889, 0.88725024},
     {-1.3033477, -1.3022803, -0.715795},
     {-0.3130189, 0.3646547, 0.40720007}},
    {{0.08082701, -0.10986319, 0.16749032},
     {-0.8735913, -1.3031272, -0.3747808},
     {-0.020307893, 1.020028, 0.09792101}},
    {{-0.20654282, 1.27717, 0.50893384},
     {0.0032306097, -1.3017129, 0.72149885},
     {-1.0913144, 0.1923495, 0.21713242}},
    {{0.042537637, 0.9785814, 0.41247368},
     {-1.3023239, -1.3024483, -0.0003599094},
     {-0.65775937, 1.304076, 0.37663126}},
    {{-0.0043627145, 0.8555695, 0.77591944},
     {-1.3037354, -1.3021724, -0.087283395},
     {-0.40985283, 7.4780324e-08, 0.9109873}},
    {{0.0022566656, 0.5344121, 0.7419236},
     {-0.11664544, -1.3038865, -0.12672849},
     {-0.70873725, 0.87272036, 0.18003495}},
    {{5.010014e-05, 1.3025903, 1.1582445},
     {-0.31843668, -1.3030428, 0.0060971677},
     {-1.2381061, 1.30128, -7.120738e-08}},
    {{-0.6246034, 0.10343394, 0.8047127},
     {-3.4081705e-08, -0.9461733, 0.8227409},
     {-0.5246457, 0.44572034, 0.7370263}},
    {{-0.030714018, 1.1915343, 0.93590295},
     {-1.3033445, -1.3022302, -0.21830168},
     {0.32372504, 1.3008945, 1.302197}},
    {{-0.69554216, 1.3018299, 0.75204486},
     {-1.2608178, -1.3043456, 0.5003132},
     {-0.48790282, 1.3023286, 0.5581384}},
    {{-1.2637705, 0.26626256, 0.7502789},
     {-1.3028028, -1.3045495, -0.55551755},
     {-0.0003495516, 0.025183031, 0.05630298}},
    {{-1.3022764, 0.9266105, 0.06467768},
     {-1.3051308, -1.3037211, 0.0013904672},
     {-0.4044043, 0.86533093, 0.51124114}},
    {{-0.9567547, 1.3022658, 0.109014876},
     {-1.3019422, -1.3026806, 0.14709924},
     {-0.017168328, 0.9150959, 0.5988242}},
    {{-0.86676335, 0.0900069, -0.018294016},
     {-1.3019593, -1.3061525, -0.1349166},
     {-0.015601166, 0.27869666, 1.3048381}},
    {{-0.023502605, 0.7858719, 1.3060132},
     {-1.3033129, -1.3048393, -0.16702797},
     {-1.3043648, 0.71143454, 1.275893}},
    {{-0.31004196, 0.0036226904, 1.1063223},
     {-0.9338422, -1.3039656, -0.010431339},
     {-0.73643607, 1.3046106, 1.1135155}},
    {{0.7332034, -2.7368558e-05, 1.303535},
     {-1.3023931, -1.3016368, 0.007795707},
     {-0.51138365, 0.9877221, 1.2354803}},
    {{-0.038608838, 0.005385504, 0.08313811},
     {-1.3049325, -1.3002473, -0.12596658},
     {0.18462974, 1.2923992, 1.3020395}},
    {{-0.054954298, 1.1400528, 0.09950764},
     {-1.3033118, -1.3023976, -0.45543492},
     {0.09282312, 0.065851025, 1.0503492}},
    {{0.00019281982, 1.3039943, 1.0063381},
     {-1.2024592, -1.3018751, -0.88421994},
     {-0.20770942, -0.0069193994, 1.2031863}},
    {{-0.3431428, 1.3025975, 0.36813298},
     {-0.29719022, -1.3018823, 0.12306603},
     {0.8753075, 0.18214293, 0.692616}},
    {{-0.5538553, 1.2755021, -0.027535846},
     {-0.02582742, -1.3019102, -0.37383735},
     {0.09126932, -0.4416204, 0.23212774}},
    {{-0.022466054, 1.3013649, 0.30955055},
     {-0.49942726, -1.3066224, 0.0022294384},
     {0.0002053896, 0.7042492, 0.07268972}},
    {{-0.048965387, 1.3025893, -1.941696e-05},
     {-1.0120144, -1.3023819, -0.94321495},
     {0.2545141, 0.7350561, 0.41911522}},
    {{1.3024987, 1.3021523, 1.0732203},
     {-1.3012207, -1.302044, -1.3028381},
     {0.010969377, 0.70931065, 0.4910004}},
    {{0.14377517, 1.3027744, 0.040039465},
     {0.8153383, -0.25934002, 0.43156177},
     {-1.3029734, -1.3039542, -0.60201436}},
    {{0.3811944, 0.77910215, 0.6184665},
     {-1.3038497, -1.3043209, -0.37834215},
     {1.3029072, 1.3021568, 1.3049159}},
    {{1.2082435, 0.023617728, -0.0131719},
     {-1.3015649, -1.3014616, -1.3046451},
     {1.3057963, 1.3057135, 1.301486}},
    {{1.3039871, -0.57443, -1.3033527},
     {-0.65571743, -1.3033358, -1.3020258},
     {0.55846083, 1.3009306, 0.55769956}},
    {{1.301844, 1.3033562, -0.038268648},
     {-0.48705217, -1.3046279, -1.303584},
     {0.39158857, 0.7229997, 0.32385352}},
    {{0.9265465, 1.3027364, -0.82189596},
     {0.10788467, -1.3019465, -1.3018264},
     {0.5128606, 0.7310713, -5.4021706e-07}},
    {{0.13414527, 0.69354624, -0.13252465},
     {-4.5390223e-07, -1.3026794, -1.3032775},
     {0.4059208, 1.301856, -0.7182579}},
    {{0.6243101, 1.0296882, -1.0244284},
     {-5.292532e-06, -1.3028511, -1.304128},
     {1.1169633, 0.91421163, -0.1627775}},
    {{1.3034954, 1.3015369, 0.0015439235},
     {-0.039103117, -1.3083278, -1.302256},
     {0.14175811, 1.3027014, -4.2320357e-06}},
    {{1.3030564, 1.0183969, -0.008811528},
     {6.326996e-08, -1.3045437, -1.3024439},
     {-4.5125084e-08, 0.35403416, -0.005793563}},
    {{0.051985897, 0.005779822, -0.10846069},
     {0.16261409, -1.302401, -0.53964436},
     {0.5187097, 0.24226993, -0.2587453}},
    {{-2.8305662e-06, 0.6159845, -0.56957746},
     {-1.934754e-06, -1.3011618, -1.3050207},
     {0.84723186, 1.3028228, 0.0012022506}},
    {{0.36963335, -0.004277921, -0.22466296},
     {1.5252036e-06, -1.303632, -1.2447387},
     {0.36567655, 0.055146508, -0.007645482}},
    {{0.11929806, 0.02842114, -0.00014543861},
     {1.0980785, -0.8781726, -0.4880003},
     {-0.054199073, 1.3024497, -0.14104646}},
    {{0.32729915, -0.0075846114, 0.0013843712},
     {0.00016991638, -1.2379192, -1.2282573},
     {0.31050938, 1.3033172, -0.056459643}},
    {{0.45515054, 0.39293835, -0.00010361617},
     {-0.06047353, -1.3013918, -1.0113875},
     {1.2146833e-07, 1.3030124, -1.0226607}},
    {{1.1533054, 1.3044413, 0.00032575044},
     {0.20379475, -1.3031743, -1.0787979},
     {0.55511034, 1.3021587, 0.058762133}},
    {{0.40996367, -0.014513751, -0.31263125},
     {-0.09197256, -1.3072507, -1.3015532},
     {0.0065859663, 0.29775688, -0.21816917}},
    {{0.11664311, 0.00032625408, -0.28805792},
     {-0.030732265, -1.3068515, -1.3022351},
     {1.3019204, 0.16706009, 3.6623493e-05}},
    {{-5.0099374e-05, 0.17575017, -0.31006682},
     {0.3440566, -1.3028586, -1.1024042},
     {1.1661904, 0.080920435, 1.0857726}},
    {{0.007978212, 0.8698622, -0.010457376},
     {-0.026373517, -1.3021219, -1.3034523},
     {0.4482508, -0.009406316, 0.6312832}},
    {{1.1320467, 1.0827235, 5.0303974e-08},
     {-0.22654988, -1.3024644, -1.3024122},
     {0.20673971, 0.18229145, 9.705323e-05}},
    {{1.303865, 1.3046328, 0.70137674},
     {-0.1262043, -1.303516, -0.00025544516},
     {3.2701578e-07, 0.047983952, -0.4064856}},
    {{0.24917538, 1.3013849, -0.18893838},
     {0.16943587, -1.3041713, -0.15092336},
     {0.31179512, 1.0096775, -0.015175875}},
    {{0.072704926, 1.3037115, -0.070391126},
     {0.12455726, -1.3020068, -1.5206467e-07},
     {-0.0743303, 0.34593982, -0.37244883}},
    {{-0.73524654, 1.3028898, -1.3025863},
     {0.019897174, -1.3033013, 0.00088961},
     {0.40419948, -0.33306208, 0.14367}},
    {{-0.00047124107, 1.304581, -0.034625437},
     {-0.10873408, -1.3066037, -0.29207504},
     {1.1643124, 0.9911674, 1.3041054}},
    {{0.12552842, 1.3042957, -0.91388047},
     {0.59448236, -1.3024408, 0.032412175},
     {-0.03304043, 0.5222071, -0.11630938}},
    {{0.56734574, 1.3026994, -0.010109326},
     {-0.03638436, -1.3055445, -0.08389844},
     {0.3995834, 1.305577, 0.04984395}},
    {{0.42797074, 1.029668, -0.053179797},
     {0.031071004, -1.3017246, -0.940203},
     {0.58596647, 1.2408262, -0.15633279}},
    {{1.3033352, 1.3056878, -0.0034082744},
     {-1.3036727, -1.3019358, -1.3025329},
     {1.3041761, 1.3014141, 1.3048347}},
    {{1.3010347, 1.3042443, 1.2081556},
     {-0.83930635, -1.3020517, -0.8546011},
     {0.9832785, 0.8033278, -0.85734737}},
    {{0.69264686, 0.94304883, -0.052665763},
     {1.305838, 1.3029317, 1.1490126},
     {-1.3038895, -1.3028116, -1.3039825}}},
   {{{1.3020328, 0.37041095, 0.012610414},
     {-0.44828188, -1.3028373, -1.3032349},
     {0.6141673, -0.97040313, -1.301658}},
    {{0.7655857, -0.14168121, -0.0035511467},
     {0.27656773, -1.2320815, -0.21526863},
     {1.3016322, 1.0437605, 0.5383637}},
    {{-0.7792846, -1.303684, -0.2945879},
     {-1.0746415, -1.3050921, -0.46582037},
     {1.3033141, 1.3036276, 1.302219}},
    {{0.056394376, -0.98631465, 0.38896155},
     {-0.9786909, -1.305269, -0.36958918},
     {1.3041667, 1.0058839, 0.6474595}},
    {{-0.041923463, -1.1609557, -1.0165333},
     {0.015440573, -1.3012882, -0.74373186},
     {1.3039011, 1.3027729, 0.83955246}},
    {{-0.5566428, -1.305879, -0.29733434},
     {-0.25006768, -1.3025255, 0.066773325},
     {1.30248, 1.3025663, 0.19242181}},
    {{0.06170321, -1.1340154, 4.9919477e-06},
     {0.1043208, -1.2628626, -0.4501693},
     {1.3035829, 1.3004475, 0.0008620167}},
    {{-0.0722728, -1.259922, 0.11751027},
     {-0.009283168, -1.0625525, -0.3575096},
     {1.3006328, 1.3016266, 0.043956462}},
    {{-0.30492112, -1.1457871, -0.036080338},
     {-0.009553592, -0.7356926, -0.11153898},
     {1.3033915, 1.3038954, -0.20691279}},
    {{0.016065426, -0.56678504, 0.05359278},
     {-0.61005634, -1.1312741, 0.3924669},
     {1.174496, 1.303223, -0.0035589195}},
    {{0.28172496, -0.23390682, 0.0008361338},
     {-0.4817992, -1.3042915, 0.00013990689},
     {1.2190627, 1.3023244, -0.39317802}},
    {{0.38358355, -0.03389012, -0.01833634},
     {-0.1570889, -1.3036145, 0.014748617},
     {1.3032357, 1.3017491, -2.3128843e-08}},
    {{0.22825289, -0.06620567, -0.45034167},
     {-0.2783613, -1.3039739, 0.016744368},
     {1.2379714, 1.3005638, 0.10147559}},
    {{0.01530104, -0.61345315, -0.99205226},
     {-0.7475806, -1.3013296, -1.0792305},
     {0.77890396, 1.1868412, -0.022297837}},
    {{-1.1171966, -1.2189647, -0.38676253},
     {-0.9077942, -1.3036828, -0.06674611},
     {0.87004316, 1.3024892, 0.09543016}},
    {{0.020292569, -0.85823387, 0.30957806},
     {-0.32886228, -1.3037696, 0.0201216},
     {1.0217402, 1.3023286, 0.37179938}},
    {{0.16989593, -0.2634649, 0.7538119},
     {-0.48289612, -0.97252303, 0.530068},
     {1.3034881, 1.3036287, 0.77206784}},
    {{-0.15850379, -0.9040944, -0.041050743},
     {-0.6367588, -1.3020006, 0.057452194},
     {1.3048956, 1.3052589, 0.041054692}},
    {{0.0053936876, -0.78183323, 0.004224614},
     {-0.63115185, -0.99521875, -0.023881853},
     {0.73488075, 1.2765833, -0.62716675}},
    {{-0.0012681133, -1.0118257, -0.09155988},
     {-0.5282996, -0.82275635, 0.000118392934},
     {1.3030694, 1.3049356, 0.47157204}},
    {{0.14448051, -0.3705329, 0.16156907},
     {-0.07278039, -0.833861, 0.13780808},
     {0.95325327, 1.2160263, 0.24573934}},
    {{-0.23916781, -0.2442561, -0.20914082},
     {-0.27927288, -0.74680257, -0.01371542},
     {0.6566795, 0.9042823, 0.049752317}},
    {{2.306461e-07, -0.2642391, -0.03839904},
     {0.09138311, -0.64930683, -0.033515625},
     {-0.015185127, 0.47765648, 0.32451433}},
    {{0.004132603, -0.24236703, -0.2708996},
     {-0.3179483, -0.4981944, -0.12363791},
     {0.53213555, 0.2698375, -0.0036705148}},
    {{-0.43343252, -0.5579608, 0.06785613},
     {-0.4138488, -0.65195495, 0.3176974},
     {-0.011175945, 0.038531274, 0.8559287}},
    {{0.06901132, -0.49085757, -0.2895294},
     {-0.13011247, -1.3019687, -7.815155e-07},
     {0.75060767, 0.6755845, 0.15915343}},
    {{0.52962315, -0.640694, -0.7381628},
     {0.16895527, -1.3024313, -0.25961435},
     {1.1521058, 0.46771875, 0.75728405}},
    {{-0.11692962, -1.3059753, -0.7317641},
     {-0.25435022, -1.3022643, 0.07971845},
     {1.3029574, 1.3031483, 1.1776114}},
    {{0.25179556, -1.120561, -0.05180516},
     {0.0071319602, -1.3019087, 7.753988e-05},
     {1.3030806, 1.3007498, 1.3020055}},
    {{-1.3025198, -1.3022337, -1.3020585},
     {-0.49637377, -1.303022, -0.1270478},
     {1.3013264, 1.3024783, 0.89512974}},
    {{-1.0149752, -1.3023958, -1.3012657},
     {0.46371415, -0.774844, -0.02457467},
     {1.3040229, 1.3003138, 1.042429}},
    {{0.4995935, -0.48534906, 0.13999824},
     {0.7500293, -0.06744262, 0.55744267},
     {0.9430194, 0.44701755, -0.31177574}},
    {{0.49080363, -0.83958113, -0.80188566},
     {-1.3000318, -1.3052236, -1.3019179},
     {1.0814062, 0.0062556723, -1.303215}},
    {{-0.59643245, -1.3022363, -0.9845401},
     {-0.37124774, -1.3017111, -0.68597996},
     {1.3015355, 1.3041188, 0.9002435}},
    {{0.14177646, -1.1643281, 0.010313294},
     {-0.009971514, -1.3019034, 0.0011402783},
     {1.3012137, 1.3025107, 1.3023902}},
    {{-0.4109676, -1.3029455, -0.24090426},
     {-0.43004873, -1.3043859, -0.032088816},
     {1.3025857, 1.3022392, 1.2308213}},
    {{-0.77813077, -0.55165833, -0.046234295},
     {0.48909634, -0.04065917, 1.1312283},
     {1.3049761, 1.30434, 1.2048309}},
    {{-0.07972448, -0.32728773, -0.031468514},
     {-0.19495773, -1.3006216, 0.13088791},
     {1.3031968, 1.3037727, 0.5700192}},
    {{-0.6736383, -1.3050258, -0.46511802},
     {-0.70664775, -1.3018576, 0.46648914},
     {1.3025422, 1.3012491, 0.58225256}},
    {{-0.6017495, -1.3025255, -0.7175593},
     {-0.09901503, -0.71045685, -0.009028136},
     {1.3048146, 1.3027375, 0.0038962765}},
    {{-0.4735589, -1.0322498, -0.28951406},
     {0.022895647, -0.73969626, 0.18532898},
     {1.3012551, 1.3035295, 0.3084652}},
    {{-0.25139844, -1.2308984, 0.0002012289},
     {-0.22456889, -0.79218405, 0.19173452},
     {1.3042091, 1.3061203, 0.29572493}},
    {{-0.15242791, -0.74981576, -0.54667604},
     {-0.14051516, -0.59136593, -6.423834e-05},
     {1.3023359, 1.3001063, 0.48531124}},
    {{-1.1663275, -0.93680805, -0.52608055},
     {-0.01614602, -0.3319493, 0.0320827},
     {1.1039822, 1.3053241, 0.05181847}},
    {{-1.0144767, -1.1706553, -0.8705038},
     {-0.003154547, -0.79030246, 0.012744241},
     {1.3022435, 1.301527, 1.976855e-06}},
    {{-1.3028625, -1.3010873, -0.7979607},
     {-0.114308335, -1.2152117, -0.09127033},
     {1.2703549, 1.3006443, 0.080240116}},
    {{-0.5706013, -1.0079105, -0.70306385},
     {-0.071459696, -1.3006387, -0.16874841},
     {1.3045233, 1.3018234, 0.31324574}},
    {{0.00046355146, -0.8767581, -0.020385329},
     {0.17851485, -1.2935442, 3.468512e-08},
     {1.3038943, 1.3014429, 0.15143798}},
    {{-0.06752319, -1.0769751, 0.061744817},
     {0.25140423, -0.73413867, -0.0835625},
     {1.3042244, 1.3025452, -0.040070057}},
    {{-0.6524108, -1.3038856, -0.7362392},
     {-0.20510441, -1.1254913, 0.07007614},
     {1.3022388, 1.3016769, 0.19832164}},
    {{-0.02848081, -0.68665874, -0.40969637},
     {-0.07897629, -1.302682, -0.0100981295},
     {1.1323023, 1.2474161, 0.3424454}},
    {{-0.30244347, -1.3009207, -1.301257},
     {0.95204914, 0.22576825, -0.0067927702},
     {1.3036623, 1.3025823, 0.498986}},
    {{-0.21375549, -0.7467519, -0.8557543},
     {0.029580789, -0.59416336, -0.16895285},
     {0.9742026, 0.97312605, 0.41051525}},
    {{0.03926269, -0.14585428, 2.8679594e-06},
     {-0.019852566, -0.37314376, 0.28837737},
     {0.4496792, 0.3910431, 0.1863674}},
    {{0.2236501, -9.447875e-08, 0.45585197},
     {-0.04182237, -0.19012648, -0.020192659},
     {1.1939319, 0.34194177, 0.034131605}},
    {{-0.50489944, -0.3841142, -0.1676255},
     {-6.154305e-05, -0.3396929, 0.15834},
     {0.9055264, 0.43959448, -0.012383001}},
    {{-0.09896854, 0.012420155, 0.17050877},
     {-0.11496942, -0.7966871, 0.20695955},
     {1.3046178, 1.3027712, 0.16964853}},
    {{-0.42798376, -0.9950138, -0.15037741},
     {0.072016805, -0.7917473, -0.00910982},
     {0.8672018, 0.37799928, -0.146535}},
    {{-0.6476182, -0.6512032, 0.104554504},
     {0.10734815, -0.46597505, 0.85277253},
     {1.3011171, 1.1785061, 1.0419015}},
    {{-1.3036902, -1.200748, 0.00012358328},
     {-0.77263933, -1.1072782, -0.12976624},
     {0.8734595, 0.86824185, 0.44842273}},
    {{-0.9464727, -1.3033391, -0.19607186},
     {-0.8283589, -1.3006673, 0.12376353},
     {1.1587815, 1.3035123, 0.29443252}},
    {{-0.6965962, -1.3036418, 0.17037368},
     {0.124209024, -0.9439789, 1.0038166},
     {1.3025279, 1.3065141, 0.74022657}},
    {{0.1614907, -0.73428005, 1.1251981},
     {-0.27246734, -0.7585007, 1.3034612},
     {1.3026738, 1.3031676, 1.3038777}},
    {{1.3015143, 0.71029127, 1.3015126},
     {1.3066025, 0.7089091, 1.3042246},
     {0.31126374, 0.05577465, -0.7992119}},
    {{0.57704455, -0.4138401, 0.004598995},
     {-1.3043474, -1.301527, -1.3055892},
     {0.7065275, -0.018619921, -1.3019568}},
    {{-0.0018906067, -0.63523996, 0.31947452},
     {-0.4859322, -1.2926503, -0.04668205},
     {1.3039231, 1.3013077, 1.2297635}},
    {{-1.3005389, -1.3024106, -1.0952375},
     {-1.3031783, -1.3039649, 0.0007317379},
     {1.3057212, 1.3009357, 1.3017669}},
    {{-1.3035654, -1.3016858, 0.027924826},
     {-0.7105017, -1.0972494, 0.53683263},
     {1.3012034, 1.3013572, 1.302012}},
    {{-0.83793217, -0.118388176, 0.17711589},
     {-0.1612989, -0.1672633, 0.7746844},
     {1.3005059, 1.3025309, 1.3015634}},
    {{-0.86653686, -0.10174502, 0.061595425},
     {-0.5666558, -0.18909761, 0.379745},
     {1.3017099, 1.3032932, 1.3020022}},
    {{-1.088102, -0.5995033, 0.44531348},
     {-0.5179277, -0.12284647, 1.3033302},
     {1.3010943, 1.3018593, 1.303123}},
    {{-0.6734843, -0.68036854, 0.23418409},
     {-1.3028594, -1.3043317, 0.39038947},
     {1.2746068, 1.3024209, 1.0670911}},
    {{-1.3057653, -1.2199153, -0.06670732},
     {-1.3046409, -1.3017596, 0.015917607},
     {0.46249104, 1.3017385, 0.95878136}},
    {{-1.304898, -1.3036648, -0.17180653},
     {-1.294816, -1.3046738, 0.0014146313},
     {0.04151319, 0.88292634, 0.6752718}},
    {{-0.5405716, -0.28836688, 0.0161049},
     {-0.4915745, -0.34766436, 0.8733151},
     {1.1877437, 1.3031408, 1.3034317}},
    {{-0.8252999, -0.51309943, 0.01951282},
     {-0.020212239, -0.5918444, 1.1649703},
     {1.3035933, 1.3018746, 1.3016477}},
    {{-0.5710203, -0.43204734, 0.020147106},
     {0.14526694, -0.67306197, 0.4381933},
     {1.2719616, 1.3018317, 1.3020172}},
    {{-1.3033136, -1.3017827, -0.84937763},
     {-0.82248664, -1.3052502, 0.087501556},
     {0.93123657, 1.3012831, 0.6379184}},
    {{-1.3008072, -1.3015573, -0.4361622},
     {-0.4994619, -1.3043762, 0.0061380267},
     {0.53876966, 1.3040503, 0.75380236}},
    {{-0.69081366, -0.9324542, 0.09425977},
     {-0.5962774, -1.3028215, 0.13681778},
     {-7.0359183e-06, 0.8293305, 0.32149315}},
    {{-0.6993335, -1.3047043, -0.18876502},
     {-0.8419418, -1.3014442, -0.10527894},
     {0.029454019, 0.6873066, 0.52154875}},
    {{0.008657174, -1.251105, 0.007026964},
     {-0.21928038, -1.0026449, 0.0085454965},
     {1.078522, 0.7955386, -0.00032258205}},
    {{-0.17647192, -1.0814849, 0.14125402},
     {-0.62398446, -1.0119225, 0.42444417},
     {0.4262487, 0.8335011, -0.2916566}},
    {{0.004357171, -1.0958345, 0.1384381},
     {-0.35968098, -0.9365319, 0.6641354},
     {0.7998009, 1.0291269, 1.967653e-05}},
    {{-0.30561122, -0.47539574, -0.15570223},
     {-0.25882772, -0.68290734, 0.060388252},
     {1.0581691, 1.1045644, -0.0007134183}},
    {{-0.48934492, -0.15321472, 0.3222846},
     {-0.8013209, -1.0221374, 0.23566072},
     {0.25547552, 0.5956285, 0.40250212}},
    {{-1.1491735, -0.93345344, -0.1743557},
     {-0.34294507, -1.069517, 0.27807307},
     {0.8481917, 0.71466553, 0.7276054}},
    {{-1.3003714, -1.1334084, -0.7066335},
     {-1.2452223, -1.3052189, 0.033170205},
     {0.312093, 0.5520731, 0.7459546}},
    {{-1.0543276, -0.8039894, -0.0706748},
     {-0.61911756, -0.8516528, 0.64511466},
     {0.615702, 0.5650309, 0.49932325}},
    {{-0.7482948, -0.35776275, -0.1610022},
     {-0.13687357, 0.0074591357, 0.64927983},
     {0.3511676, 0.81961316, 0.05645192}},
    {{-0.94751996, -0.6393002, -0.48768488},
     {-0.2867323, -0.2482892, 0.5770958},
     {-0.1121876, 0.09372491, -0.67173517}},
    {{-0.43127704, -0.5447943, 1.9258798e-06},
     {-0.46523032, -0.54541636, 0.5299121},
     {0.4260061, 0.99670017, -0.18489212}},
    {{-1.3010229, -1.3033385, -0.5602064},
     {-0.2901691, -0.7661202, -0.22658427},
     {1.3045044, 1.3034216, -0.82757545}},
    {{-1.0832455, -1.3026556, -0.4666386},
     {-0.15635698, -0.22810991, 1.2310767},
     {1.3044412, 1.3024033, 0.927508}},
    {{-0.27968052, -0.79993564, 0.5506308},
     {-1.3016438, -1.3032401, 1.0365164},
     {0.52268547, 0.9941312, 1.0891079}},
    {{0.87642974, -0.12806939, 0.015001554},
     {0.06881895, -0.5103112, 0.29301658},
     {-0.7051697, -0.8007483, -0.9172028}}},
   {{{-0.553916, 1.2173358, -1.3060848},
     {1.30303, 1.3021349, 1.3024755},
     {1.3028303, 1.3052809, 1.3045398}},
    {{-1.242447, 1.3058685, -0.92848855},
     {1.3017144, 1.301164, 1.302306},
     {0.40013963, 0.14711207, 0.14553745}},
    {{-0.17493597, 1.3022141, 0.11271701},
     {1.3013359, 0.0111501515, 1.3026893},
     {-1.3027556, -0.9224654, -0.011917523}},
    {{-0.25851142, 1.3036163, 0.5100348},
     {1.304167, 0.54911035, 1.3048137},
     {-1.3019016, -1.304841, 0.11824008}},
    {{-0.84295714, 1.3030248, 0.66073567},
     {0.18085814, -0.36065474, 1.0797689},
     {-1.3038368, -1.3019042, 0.6285674}},
    {{-1.3011343, 1.3034573, 0.9807334},
     {0.075512476, -0.016675474, 1.3042042},
     {-1.3024647, -0.6280787, 1.3032353}},
    {{-0.6792997, 1.3029855, 1.3025597},
     {0.37550864, -0.07898969, 1.3026885},
     {-1.301636, -0.3581455, 1.30034}},
    {{-1.3043345, 1.3015444, 0.844586},
     {-0.2883346, -0.6549264, 1.3041005},
     {-1.301773, -1.3083434, 1.3043603}},
    {{-1.303511, 1.3025848, 1.304098},
     {-0.06902631, -0.9079368, 1.3058636},
     {-1.3031746, -1.3040029, 1.3044575}},
    {{-1.3027395, 1.3042167, 1.304425},
     {-2.5774052e-06, -0.72588646, 1.3048421},
     {-1.3026475, -1.3022738, 1.3029852}},
    {{-0.6225633, 1.3014973, 1.3012518},
     {2.8199947e-08, 0.015764326, 1.305259},
     {-0.44639742, -0.82806104, 1.3020765}},
    {{-0.0070588132, 1.3019785, 1.3062655},
     {-0.012257425, -1.0218768, 1.3058654},
     {-1.2428325, 0.018986152, 1.3018484}},
    {{-0.3633381, 1.300507, 1.3023149},
     {-0.00011140684, -1.2158872, 1.3005484},
     {-1.3042212, -0.2766815, 1.3037419}},
    {{-0.3202137, 1.3032284, 1.3047849},
     {-0.022164958, -0.42158875, 1.300517},
     {-1.3030027, -0.11209616, 1.3040242}},
    {{-0.55693257, 1.3012618, 1.3009077},
     {0.0017495926, -1.3040785, 1.3004513},
     {-0.9855127, -0.28103897, 1.1941907}},
    {{-0.5665031, 1.3037788, 1.3020381},
     {-0.015121262, -1.0432936, 1.3061744},
     {-0.40241608, -0.18853146, 1.3019958}},
    {{-0.0866269, 1.3061339, 0.8387844},
     {-1.1111802, -1.301834, 1.3023933},
     {-1.3017765, -1.303028, 1.3060505}},
    {{-0.39275324, 1.3008006, 0.19577211},
     {-0.44086146, -1.3013332, 1.3020366},
     {-1.3043174, -1.3033158, 0.7345908}},
    {{-0.2191533, 1.0166582, 0.39498806},
     {0.20140566, -1.307975, 1.3034694},
     {-1.3037512, -0.61473167, 1.3044611}},
    {{-0.0039698463, 1.3024865, 0.6857872},
     {-0.10653018, -1.3038855, 0.41027376},
     {-1.3050503, -1.3024884, 0.026581801}},
    {{-7.950041e-08, 0.23045266, -0.00039942877},
     {0.030008076, -1.3053454, 0.7888669},
     {-1.3019003, -1.3046887, 1.3038186}},
    {{-0.27381545, 0.72921723, -0.0010672414},
     {-0.8453485, -1.3032626, 0.8130643},
     {-1.3041477, -0.4545227, 1.3042654}},
    {{-0.36004657, 0.10008882, 0.045306373},
     {0.00015526974, -1.3058375, 1.301594},
     {-0.9877515, -0.020515613, 1.3054183}},
    {{-0.8763303, -6.688493e-08, 0.66671246},
     {-0.25639805, -1.3040209, 0.25754657},
     {-1.3035218, -0.054933593, 0.21461004}},
    {{-0.31154054, 0.007772871, 0.4930286},
     {-0.13160126, -1.305177, 0.13360728},
     {-0.4916017, 0.0020323084, 0.3744486}},
    {{-1.1404108, -0.02851545, 0.14405699},
     {0.6241306, -1.300373, 0.7201994},
     {-0.32760876, -0.40225932, 1.3013688}},
    {{-1.3040466, 1.9362644e-05, 1.1708859},
     {-0.53407055, -1.3006843, 0.52175814},
     {-0.57867956, -0.007887839, 1.3041885}},
    {{-1.2125534, -1.3305569e-05, 0.28072485},
     {1.4288762e-05, -1.3040029, 0.07526642},
     {-0.09949687, -0.5670549, 1.303144}},
    {{0.025775725, 0.87271184, 0.06711335},
     {0.56766725, -1.3057708, -0.11414329},
     {-0.1200734, -1.3011136, 0.45943183}},
    {{-0.23004474, 1.3059005, 1.3055115},
     {0.116637334, -1.3023437, 0.44640368},
     {-0.89148164, -0.5314861, 1.300933}},
    {{-0.5608008, 1.1969233, 1.3058339},
     {-1.3033602, -1.3028743, -0.2970897},
     {-0.115963385, -1.3031378, 0.17079538}},
    {{-0.8723854, -1.3026878, 0.28521636},
     {-1.3072239, -1.3022226, -1.1535332},
     {-0.45034394, -0.6255139, -0.6929896}},
    {{-0.75584495, -0.06644388, -1.3034492},
     {1.3041717, 1.3014206, 1.3026345},
     {1.3041378, 1.3033042, 0.13851608}},
    {{-0.7346975, 0.8906439, -1.3052292},
     {1.3023489, 0.13477106, -0.3558901},
     {0.6849998, -0.9484719, -1.2691857}},
    {{-0.14603126, 1.3007038, -1.3010536},
     {1.3041625, -0.4772098, -0.5474158},
     {0.36725628, -0.24285948, -1.060681}},
    {{0.45727903, 1.3037975, -1.3025259},
     {1.3030481, -0.048030723, -1.1353858},
     {0.82966316, -0.3058136, -1.3039477}},
    {{0.34164932, 1.3049872, -1.3057642},
     {1.3028646, -1.3013793, -1.3054626},
     {-0.019428002, 0.0036011054, -0.43421298}},
    {{0.12912941, 0.40301055, -1.2817751},
     {1.3015906, -1.3031503, -1.0009576},
     {0.42769462, -0.29691336, 0.039612174}},
    {{0.17794049, 0.23867215, -1.3034674},
     {1.3019973, -1.3023263, -1.3034877},
     {0.27200818, -0.9045112, -0.8493435}},
    {{0.42192674, -0.081520565, -1.3026484},
     {1.3027261, -0.92311496, -1.3012246},
     {1.1256541, -0.009770823, -0.40602875}},
    {{4.975939e-07, 0.14382003, -1.3055542},
     {1.3023707, -1.2558337, -0.5662457},
     {0.40345344, -0.02085959, -0.1428995}},
    {{-3.7452244e-06, 0.070171125, -1.092779},
     {1.3010375, -1.3047981, -0.10789484},
     {0.49208158, 0.59440035, -0.08960139}},
    {{2.5771855e-05, -0.43539187, -0.97152025},
     {1.3052489, -1.3031007, 0.0023829588},
     {1.3044363, 0.01686644, -0.015247799}},
    {{0.1521633, -0.0069896323, -1.0671791},
     {1.3033825, -1.3025285, -0.4767427},
     {1.3031896, -0.00897496, 0.034249574}},
    {{0.02632174, -0.0010499132, -0.86521715},
     {1.304849, -1.300589, -0.095740035},
     {1.2987914, -0.095149234, 8.715181e-08}},
    {{6.098269e-05, -0.031084104, -0.5948384},
     {1.3033196, -1.3021867, -0.37021613},
     {0.91420096, 0.014890146, -0.001152474}},
    {{0.75117147, 0.06036853, -0.29977128},
     {1.3002868, -1.3069003, -0.74803555},
     {0.797585, -0.0064508044, -0.2430731}},
    {{0.08727334, -0.09243147, -0.71624726},
     {1.069739, -1.3025073, -0.5660672},
     {1.33329285e-08, -3.376329e-07, 0.0002015778}},
    {{0.00028025574, -0.47043633, -0.89833957},
     {-0.013365514, -1.3041679, -0.80551153},
     {0.022274978, -0.01426788, 0.0041660843}},
    {{0.3598254, 0.00034370515, -1.3025316},
     {0.9735991, -1.3055409, -0.9444597},
     {0.15482175, -0.15790299, -0.91225576}},
    {{0.1110881, 1.0271337, -0.70632684},
     {1.3026303, -1.3019904, 0.14017536},
     {0.024063399, -0.079941645, -0.11411596}},
    {{-0.0026201652, 0.010896789, -0.78222394},
     {0.991169, -1.3045471, -1.102468},
     {1.291464, 0.001127821, -0.03504835}},
    {{-0.44831043, -0.46875966, -1.3022398},
     {0.30508235, -1.302431, -1.3060343},
     {1.7629778e-05, -4.9187784e-06, 0.019776313}},
    {{0.022137487, 0.15140066, -1.3079722},
     {0.36015806, -1.3038327, -1.3022693},
     {-0.016243357, 0.09194143, -0.62667}},
    {{0.021585071, -0.04415353, -1.3014635},
     {-0.016122065, -1.3024302, -1.3012455},
     {0.42094833, -0.02988012, 0.015346648}},
    {{-0.5890693, 0.06607337, -1.3017298},
     {0.17420216, -1.3006353, -1.3037802},
     {0.00020135121, -0.0027784335, 0.19864781}},
    {{0.09296841, 0.0015108008, 0.10702555},
     {0.41013142, -1.3017373, -1.134507},
     {4.5465504e-06, -0.77718055, -0.14203635}},
    {{0.11027601, 0.09369188, -0.0031986681},
     {-0.046538465, -1.3043647, -1.1325185},
     {0.006527411, -0.6593786, 0.7686835}},
    {{-0.3399193, 0.6778208, -0.683433},
     {-0.4589077, -1.3012661, -1.0511165},
     {-0.047667284, -0.004544876, -0.010791949}},
    {{0.19005565, 0.46898946, 0.066650555},
     {-0.11008116, -1.303263, -0.31368348},
     {0.10692317, -0.27993295, -0.010413082}},
    {{0.32328844, 1.0507835, 0.69449604},
     {0.62723124, -1.3049339, -0.46020237},
     {0.25565323, -0.77902365, 0.13304146}},
    {{-0.38856414, 0.00025563478, 0.15426806},
     {-0.36472538, -1.3033714, -1.302912},
     {0.54112315, -1.3039764, 0.32493076}},
    {{-0.4295769, 0.832134, -0.017028738},
     {-0.44016537, -1.3023251, -1.3018321},
     {1.3020996, -1.3119205, 0.05325617}},
    {{-1.3026103, -1.3015813, -1.30732},
     {-1.3069243, -1.303477, -1.3083528},
     {0.119190976, -0.9229814, 0.3504515}},
    {{-1.302818, -0.021779545, -1.3033953},
     {1.3027883, 1.3026342, 1.3029232},
     {1.3012841, 1.3016735, 1.0476294}},
    {{-0.41194865, 1.3022399, -1.3032084},
     {1.3030869, 1.3030318, -0.3889101},
     {1.3022009, 1.3028895, -0.6450764}},
    {{-0.5007427, 0.09508664, -1.3041071},
     {1.3031677, 0.00019900597, -0.23228657},
     {0.040165883, 0.27923223, -0.006070502}},
    {{-0.63713324, 1.3031244, -1.3037822},
     {1.3053554, -0.89342064, -0.7405957},
     {1.3024869, -0.6715574, -0.16191027}},
    {{-0.2066942, 0.5877663, -0.38396758},
     {1.3038269, -0.6154691, 0.009475306},
     {0.5855866, -5.3311776e-08, 0.28130785}},
    {{0.048288167, 0.58176315, -0.1626662},
     {1.3051246, 0.013987897, -0.15359727},
     {-0.00058197917, 0.09537393, 0.028882707}},
    {{-1.265295, -0.00029967117, -1.3035889},
     {1.3012673, -1.3040833, -1.2563739},
     {0.76467776, 0.010769232, -0.036948908}},
    {{-0.13114718, 1.2392976, -0.0061477795},
     {1.3021243, -1.3033448, -0.9696581},
     {0.033824842, -0.00061213603, 0.061244227}},
    {{-0.115735896, 0.51600564, 0.18731314},
     {1.3040507, -1.3035839, -0.21271941},
     {-1.4859884e-07, 0.00097276806, -2.5586266e-06}},
    {{0.028660161, 0.067976736, -0.19994916},
     {1.3032526, -1.16046, -0.02570636},
     {0.24911985, 0.029123055, -0.2663852}},
    {{-0.6552629, 0.1780067, -0.012092395},
     {1.3049258, -1.3020029, -0.37747028},
     {0.015148427, -0.00066098385, 0.49513412}},
    {{-1.1616508, 0.19371869, -0.3567253},
     {1.3068206, -1.3011405, 0.00071075524},
     {-0.00035215414, 0.078488946, -0.3584215}},
    {{-0.34590262, 0.084963165, -0.4811287},
     {1.30417, -1.302153, -1.3026295},
     {0.00010222139, 6.659431e-06, -0.3579268}},
    {{-0.11499136, 0.084901735, 0.011161583},
     {1.302303, -1.3044457, -0.34768748},
     {-0.061213236, 0.00026273224, -0.08305628}},
    {{-0.4241738, 0.11402661, -0.16568854},
     {1.3015668, -1.3029093, -0.07615622},
     {-0.02653277, -0.0016710329, -7.005745e-08}},
    {{-6.80725e-05, -0.0069308886, -0.45044628},
     {1.2713904, -1.3033128, -0.5781514},
     {0.15359095, 0.00024972847, 0.022013351}},
    {{0.04787255, 0.57905096, -0.07957179},
     {1.0034609, -0.88796645, -0.53857964},
     {0.1505393, 2.3250252e-05, -0.27483708}},
    {{-0.07156784, 0.20723704, 0.004071029},
     {0.5063211, -1.3035119, -0.1850119},
     {0.17394476, -7.561817e-08, 0.19955924}},
    {{-0.34037527, 0.091541044, -1.0047266},
     {1.1720562, -0.8705234, -1.3053848},
     {0.8427636, -0.18481444, -0.3351032}},
    {{-0.7863206, -0.26323503, 0.14767626},
     {0.7492954, -1.3029091, -1.2187245},
     {0.79718524, 0.4873183, -0.052203547}},
    {{-0.3377077, 0.21564277, 0.21315145},
     {0.37968397, -1.3037499, -0.21521989},
     {0.32770348, 4.130333e-07, -0.47635856}},
    {{-0.0010390719, 0.41892585, -0.24588479},
     {0.74173456, -1.1153029, -0.63731015},
     {0.9555589, -0.112825535, -0.014418159}},
    {{-0.4187584, -0.010757024, -1.0109355},
     {0.10262664, -1.3019826, -1.3025593},
     {-0.1738207, 0.02773769, 0.2935205}},
    {{0.124043606, 0.3459928, -0.9231297},
     {0.465785, -1.3013046, -1.3050021},
     {-5.0545236e-07, -0.07249861, -0.05484667}},
    {{-0.007923804, 0.3497314, 0.0015461324},
     {0.5442561, -1.3025358, -0.4045989},
     {1.3041013, 0.0030919309, 0.04195551}},
    {{0.6429641, -1.2548132e-07, 0.053373154},
     {0.34778664, -1.305033, -1.3064535},
     {1.304642, 0.55067486, 0.30665806}},
    {{0.23367365, -0.03348258, 0.019899864},
     {0.4485652, -1.3061072, -0.97649753},
     {0.2638543, -0.07639533, -0.2990262}},
    {{0.6057605, 0.4751758, -0.008048701},
     {0.031853706, -1.3022095, -1.3033617},
     {0.68069494, -0.6893964, 0.012011993}},
    {{0.15804751, -0.044177033, -0.34294528},
     {-0.15616441, -1.3023599, -1.3035213},
     {1.3025801, 0.045617923, -0.6229903}},
    {{-0.12956439, 0.48351398, -0.35536236},
     {-0.35831478, -1.3041924, -1.3008691},
     {1.3039259, 0.027274756, 1.3056837e-06}},
    {{0.2962893, 0.421824, -0.1520401},
     {-0.0106593855, -1.3045979, -1.302257},
     {1.303215, -0.39133075, -0.323105}},
    {{-1.3022181, -1.3064287, -1.3014387},
     {-1.3057704, -1.3024943, -1.3008578},
     {0.36984587, -0.6109982, -0.06443951}}},
   {{{1.3028334, 1.3035282, 1.3019153},
     {1.3029152, 1.3038877, 1.3036757},
     {1.3045231, 1.3011931, 0.62876004}},
    {{0.088613026, 1.3043752, -1.1995685},
     {1.3014209, 1.3049461, -0.79165775},
     {0.6156373, -0.008780093, -1.3057568}},
    {{-1.3080214, 1.3047639, -0.91599023},
     {1.3041055, 1.3063068, 0.027257282},
     {1.3039331, 0.8303309, -1.0531877}},
    {{-1.3037983, 1.3037797, -0.023588095},
     {1.3071668, 1.3060759, -0.7082183},
     {1.3057224, 0.087824255, -0.59646076}},
    {{-0.9791469, 1.3072696, -0.29119492},
     {1.3026786, 1.3026755, -0.36167857},
     {1.3033724, -0.29487556, -1.3024303}},
    {{0.07292489, 0.8101248, -0.047405425},
     {1.3024356, 1.3037703, -1.3006362},
     {1.3048123, -0.43070352, -1.3013515}},
    {{-0.13284163, 1.3018974, -0.21827036},
     {1.3049458, 1.3023771, -1.3031523},
     {1.3054137, -0.07481213, -0.043706298}},
    {{-1.0368677, 1.3024946, -0.038547456},
     {1.3044552, 1.3034009, -1.3027754},
     {1.3036447, 0.015017247, -0.28350443}},
    {{-0.0023479818, 0.9920289, -1.3035337},
     {1.3014957, 1.3011824, -1.303383},
     {1.3013539, -0.4905427, -0.5213671}},
    {{0.25295174, 1.2707927, -1.3042527},
     {1.3052374, 1.301266, -1.3034741},
     {1.301854, -0.19842139, -1.3003014}},
    {{-0.13675517, 0.71475875, -0.6140236},
     {1.3057473, 1.3024181, -1.3030909},
     {1.3040769, -0.22283076, -0.45784277}},
    {{0.021783805, 0.55032766, -0.4566374},
     {1.3043202, 1.3017539, -1.3020754},
     {1.3030971, -0.57591015, 0.014086765}},
    {{-0.0061426046, 1.3017262, -0.58047324},
     {1.3046614, 1.3012742, -1.3026901},
     {1.3013065, -0.5529912, -0.50034326}},
    {{0.29953244, 0.41964594, -0.3382919},
     {1.3019024, 0.39899546, -1.3043771},
     {0.56927764, -0.11931996, -0.120494105}},
    {{0.0062322635, 0.9027042, -0.9330277},
     {1.3016644, 0.35368893, -1.3026181},
     {0.07963141, -1.300691, -1.0766664}},
    {{1.5331679e-07, 0.49887586, -0.16422468},
     {0.35933277, 0.33818546, -1.3054705},
     {-1.2939806e-07, -1.301244, -0.49420536}},
    {{-0.029234337, 0.00021388296, -0.14072105},
     {1.0957168, 0.5287611, -1.3019694},
     {-0.00045275126, -0.08287902, -0.013563637}},
    {{-0.26699564, 1.0103099, -0.09463864},
     {1.0644622, 0.00074627297, -1.303942},
     {0.72913605, -0.8617317, 0.30015543}},
    {{0.23711939, 0.5061673, -0.035657927},
     {0.67218035, 0.35497996, -1.3022938},
     {-0.0725258, -1.302742, 7.899949e-05}},
    {{5.4922395e-05, 1.1659213, -0.25032192},
     {1.303636, 0.5891997, -1.1527884},
     {0.39796087, -1.3013753, -0.82589036}},
    {{-0.3908271, 0.88842314, -0.39750037},
     {0.3085081, -0.029377738, -0.74698997},
     {0.14189857, -1.300921, 0.05820761}},
    {{0.2439571, -0.31206012, -1.0196445},
     {1.304276, 0.30110264, -1.2357478},
     {0.84469694, -1.0476747, -0.35637054}},
    {{1.7537977e-06, -0.005656719, -1.3012058},
     {1.3015887, 0.74058837, -1.1312753},
     {0.91300285, -1.3043872, 0.055971462}},
    {{0.028068084, 0.23358223, -1.3035966},
     {1.3024943, 0.7928604, -0.90592444},
     {0.21892871, -1.3022237, 2.350637e-08}},
    {{0.2955439, -0.095187895, -1.3029457},
     {1.3019179, 1.0055963, -1.2149276},
     {0.6864446, -0.9028773, -0.3887326}},
    {{-0.25377598, 0.38777244, -1.3023882},
     {1.3026624, 1.3018653, -1.3016492},
     {1.3028281, -1.3027611, -0.97584105}},
    {{-0.09455322, 0.44202122, -0.71825945},
     {1.3041532, 1.3031383, -1.3053845},
     {1.3029984, -0.421658, -0.15774676}},
    {{-0.08423396, 1.3056194, -0.4134947},
     {1.3045267, 1.3011065, -1.3037115},
     {1.3039641, -0.5066006, -0.0007908926}},
    {{-1.3013178, 0.4286174, -0.0808131},
     {1.3018674, 1.3003507, -1.2471591},
     {1.302839, -0.7384414, 0.6907325}},
    {{-1.3056334, 1.301579, -0.43723243},
     {1.3025098, 1.3035753, -1.3026038},
     {1.305073, -0.6712557, 0.0003138875}},
    {{-1.1353267, 0.40985247, -1.3031693},
     {1.3035977, 1.3008246, -1.3011526},
     {1.3041528, -0.14674106, -0.21855205}},
    {{0.21721266, 1.174235, 0.061740145},
     {0.22703148, 0.08243236, 0.25828227},
     {1.3041729, 1.3009291, 1.3015203}},
    {{0.16442154, 1.3028212, 0.91711855},
     {1.3021808, 1.3022481, 1.3026668},
     {1.3030748, 1.3022504, 0.48605067}},
    {{-1.3028506, 1.3072356, -0.5776261},
     {1.3010705, 1.3008101, -0.051866863},
     {0.6100955, 0.13521834, -0.37422895}},
    {{-1.3046495, 1.30047, -0.83904815},
     {1.0642176, 1.3044099, 0.6590781},
     {1.3090894, -0.056063123, 0.12636898}},
    {{-1.305251, 0.7325743, -0.06843027},
     {-0.21156192, 1.3052269, 0.02486178},
     {1.3027096, 0.007389899, 1.3013235}},
    {{-1.3059375, 0.6565684, -0.24687722},
     {-0.008339418, 1.3026522, -0.14875218},
     {1.3062377, -1.3017642, 1.0574061}},
    {{-1.3026929, -0.1548049, -1.0769924},
     {0.05945831, 1.3016986, -0.59563774},
     {1.301264, -0.16484237, 0.6289206}},
    {{-1.302364, 0.7818624, 0.027649036},
     {0.7799309, 1.3026997, -0.9337243},
     {1.3032131, 0.0005199118, 0.7764898}},
    {{-1.3041395, 0.0048565893, -0.2915552},
     {-0.18400827, 0.56800693, -1.1610727},
     {0.22452153, -1.0032288, 0.8496923}},
    {{-1.3012695, -0.029769743, -0.7139554},
     {1.7041124e-08, 0.47482914, -1.3019707},
     {0.82941276, -0.33621418, 0.01707063}},
    {{-1.3024452, 0.32532015, -0.99240434},
     {0.6399749, -0.024186607, -1.303018},
     {0.8169278, -0.33674303, -3.5424437e-05}},
    {{-0.59158635, 0.013124832, 0.001797481},
     {1.1204834, 0.4942593, -1.3023955},
     {1.3016256, -0.044482417, 0.059342496}},
    {{-1.2505724, -0.10909019, -0.22707817},
     {0.47864386, 0.00019006628, -1.3018708},
     {1.1177747, -0.34934288, 0.16101271}},
    {{-0.8453563, -0.048406754, -0.14157431},
     {0.89189446, 0.0032556818, -1.1018662},
     {0.68127054, -1.0411861, 0.14312729}},
    {{-0.54781, -0.008906043, 0.00031203826},
     {0.55381304, 0.2663008, -1.0119166},
     {0.5398513, -0.039221786, 1.4667932e-06}},
    {{-0.7277134, -0.00070734334, -0.5886893},
     {0.3392718, 0.05177613, -0.49772358},
     {0.3617807, -0.6914935, 0.52358454}},
    {{-0.34633008, 0.09772893, -0.026740838},
     {0.6281502, 0.14734577, -0.5509368},
     {0.77540964, -1.0402108, -0.08751815}},
    {{-4.234144e-08, 4.633562e-06, 0.037604287},
     {0.4640245, 6.45799e-05, -0.015597956},
     {0.6919329, -0.2846993, 0.7763443}},
    {{-0.20144138, -0.021626852, -0.92718667},
     {-0.0014405138, 0.56623846, -0.8764176},
     {-0.066506684, -0.82521755, 0.033641513}},
    {{-0.8864801, -0.17722894, -0.888621},
     {0.8119309, 0.50200987, -0.8322236},
     {0.17913398, -0.7874776, 0.46949482}},
    {{-0.16843422, 3.060156e-08, -0.13372432},
     {0.16323398, 0.07769235, -0.92655355},
     {-0.0031577845, -0.9312998, -0.10822992}},
    {{0.013274878, -0.7169195, -0.3888521},
     {1.302489, 0.0026968566, -1.0114144},
     {1.303175, -0.30102015, 0.18507676}},
    {{-0.5968688, 0.005436256, 0.00979067},
     {0.4467882, -0.0060400367, -1.0440886},
     {-0.0027393724, -0.54668814, 0.24690942}},
    {{-0.23931418, -0.0026641395, -1.0159563},
     {0.52052575, 0.045972124, -0.9480234},
     {0.81049126, -0.75879836, 0.5843865}},
    {{-0.50898874, -0.09897967, 0.022628618},
     {-0.043231998, 0.20076315, -1.0646123},
     {-0.15079314, -0.52291757, 0.8597989}},
    {{-0.8734075, -0.092422836, 0.023317188},
     {0.015912041, 0.1991892, -1.2106663},
     {0.003612105, -1.2676002, 0.07372983}},
    {{-0.23643118, 0.058707368, -0.6896144},
     {0.15640217, 0.35095462, -1.2119591},
     {0.48599726, -0.29281437, 0.15147568}},
    {{-1.0734103, -0.031468768, -0.58301944},
     {-0.07444408, 0.30668393, -1.3019158},
     {0.21964988, -0.6092434, 0.008865087}},
    {{-0.8548719, -0.5018011, -0.23546487},
     {0.83630407, 0.61330235, -0.6583284},
     {1.3033143, -0.65979475, -0.18492578}},
    {{-1.3066671, -0.10330935, -0.00080834125},
     {1.3013097, 0.7457828, -0.904151},
     {1.3038983, -1.3024228, -0.4767161}},
    {{-1.0970432, -0.21930103, 0.1203189},
     {1.2393345, 0.61522675, -1.3020331},
     {1.3033609, -1.3020175, -0.46692675}},
    {{-1.303995, 0.50142086, -0.079629704},
     {0.7296146, 1.0725144, -1.3004129},
     {1.303309, -1.3016784, -0.22056104}},
    {{-0.8413759, 0.30521274, -0.21438552},
     {0.0008012703, 0.42685744, -1.3023418},
     {1.301909, 1.3025845, 1.3015546}},
    {{-1.0055851, 1.3024874, 1.2854394},
     {1.3032763, 1.3049953, 1.1100796},
     {0.55972534, 1.3057638, 0.38315848}},
    {{-1.3058223, 1.3038055, 0.5586481},
     {-0.63889325, 1.3024884, 0.97445285},
     {-1.3015877, -1.0007701, 0.62518406}},
    {{-1.3040546, 1.3033406, 0.1812927},
     {-0.8046433, 1.3019371, 0.2649981},
     {-0.55351293, -0.76979697, 1.3053056}},
    {{-1.3020985, 0.9937584, 0.10670815},
     {-1.3036808, 1.3035034, 0.7699586},
     {-1.302089, -1.0565212, 1.3033965}},
    {{-1.3010529, 0.038810834, 0.87188053},
     {-1.3017504, 1.3017378, 0.54178995},
     {-1.3045412, -0.8673405, 1.3010685}},
    {{-1.3045089, -5.882798e-07, 0.82989275},
     {-1.3020439, 1.3015707, 1.3048351},
     {-1.3038616, -0.8895358, 1.3029463}},
    {{-1.3026849, 0.43118164, 0.9589878},
     {-1.3016033, 1.0697827, 1.3034208},
     {-1.3018569, -1.3060776, 1.3033739}},
    {{-1.3033173, 0.79520285, -0.07982737},
     {-0.16878797, 1.3026471, 0.7201804},
     {-0.7276226, -1.3022337, 1.3023733}},
    {{-1.3030466, 0.85956335, 0.79797},
     {-0.26928806, 1.0836303, 0.0608288},
     {-0.48913863, -0.59228176, 0.85555387}},
    {{-0.76069903, 0.9541024, 0.7546462},
     {-0.66525686, 0.54597706, 0.022052236},
     {-0.028550802, -0.009249144, 0.29280856}},
    {{-1.07894635e-07, -2.7928174e-08, 0.9139337},
     {-0.0074260104, 0.074023545, -2.0259705e-07},
     {-0.19293907, 0.014813266, 1.303188}},
    {{-0.39089653, 0.10282616, 0.3667242},
     {-0.7760664, 0.8954403, 0.6304645},
     {-0.00547383, -0.14865941, 0.9278583}},
    {{-0.012756801, -1.7946581e-07, -3.7436996e-07},
     {-0.3618722, 0.22764184, 0.26451078},
     {-0.41289586, -0.74264795, 0.67195517}},
    {{0.00050178973, 0.71095496, 0.56193674},
     {-0.11901391, -8.0545244e-05, 0.041554905},
     {-0.41401935, -0.08204159, 0.5822936}},
    {{2.1834155e-07, 0.99526703, 0.029654678},
     {-0.11758972, 0.39225182, 0.25320053},
     {0.0002381408, -0.11637531, 0.7802501}},
    {{-0.4244717, -0.2902955, 0.05937559},
     {-0.6061982, 0.0069168243, 0.21807614},
     {-0.003925176, -0.34415218, 0.9057781}},
    {{-0.046539344, -4.2351887e-05, 0.36072817},
     {-0.66350764, 0.050926045, 0.50982475},
     {-0.00082190096, 0.00022904351, 0.2700492}},
    {{0.0004615123, 0.41879675, 5.779964e-07},
     {-0.23031, -1.3457367e-06, 0.080395155},
     {0.23681507, -0.15016155, 1.3036104}},
    {{-0.13343765, 0.28058743, 0.86284304},
     {-0.5349789, 0.06700649, 0.0746289},
     {0.0016463002, -0.34402844, 1.1520355}},
    {{-0.7781577, -2.7407777e-05, 0.36755195},
     {-0.60581094, 0.09189981, -0.10976198},
     {-0.23146571, -0.18478239, 0.7981285}},
    {{-0.18814203, 0.05936915, 1.1728162},
     {-0.04578503, 0.001887458, 0.8306407},
     {-0.25100073, -0.65329474, 1.3033695}},
    {{1.4782151e-07, 0.6870435, 1.30218},
     {-0.06786454, 0.4699046, 0.23664735},
     {-0.2284819, -0.36630082, 0.77792186}},
    {{0.033423968, 0.34934044, 1.3047152},
     {-1.0428184, 0.12683906, -0.00011678654},
     {-1.0694513, -0.35345152, 0.761402}},
    {{-0.57109636, 0.10012681, 1.3026583},
     {-0.43180132, 0.12574537, 0.19829133},
     {-0.71069235, -0.9442743, 1.3021557}},
    {{-0.0024454368, 0.16946293, 1.3022896},
     {-1.3007936, 0.45550376, 0.008358466},
     {-0.18108097, -0.76791877, 1.3035043}},
    {{-0.9613589, -0.03335568, 1.1362886},
     {-0.6634446, 0.07237638, -0.011550209},
     {1.0244159e-07, -1.0445223, 0.14572693}},
    {{-1.1873438, 0.93114185, 1.213096},
     {-0.5474256, 0.19750443, -0.009253197},
     {0.020217508, -1.1920975, 0.7340874}},
    {{-0.7860933, 1.301796, 1.3031797},
     {0.25652942, 0.85271037, 0.008811496},
     {-0.55110294, -1.3051386, 0.67641467}},
    {{-0.82917124, 1.3045409, 1.3034538},
     {-0.22172688, 0.01702515, 0.74778676},
     {-0.44670373, -1.3027322, 0.23245652}},
    {{-1.3018099, 1.3012328, 1.3009334},
     {-0.23894258, 1.211397, 0.58297104},
     {-0.5548539, -1.3057877, 1.1601516}},
    {{-1.3025503, 1.3049308, 1.3052776},
     {-0.79911447, 1.302332, 1.3020713},
     {0.07739945, -0.02274246, 1.3032612}},
    {{-1.3024843, 1.0700837, 1.3033518},
     {-0.79683286, 0.90823174, 0.67582774},
     {1.3038985, 1.3025208, 1.3021653}}},
   {{{0.5392335, -0.75577986, -0.56506103},
     {-0.5212683, -1.3042892, 0.24891677},
     {1.3047788, -1.1331666, 1.304261}},
    {{0.51062566, -0.024642166, 0.37093416},
     {-1.2014178, -0.9716162, 1.304594},
     {0.33297873, -1.3025533, 1.3043526}},
    {{0.0009983989, -0.6049784, -0.6651469},
     {-0.49388465, -0.48322633, 1.30356},
     {0.42879012, -1.3020298, 1.3059981}},
    {{0.51425594, -0.22804533, 0.24742648},
     {-0.5432499, 0.13238752, 1.3005437},
     {-2.605288e-07, -1.3040389, 1.3034251}},
    {{-0.2991603, 0.072421774, 0.0002910576},
     {-0.30807638, -2.861801e-07, 1.3035883},
     {0.1460655, -0.92923266, 1.3037947}},
    {{0.037553623, -0.43539184, -0.15862691},
     {-1.0915003, 0.24098152, 1.301893},
     {0.014921857, -1.1841868, 1.3023775}},
    {{0.0010396623, 0.22076097, -0.75580126},
     {-0.20291662, 0.27521268, 1.3040847},
     {1.2341685, -1.226581, 0.89143515}},
    {{1.0996553, -0.040824156, -0.4712493},
     {-0.26349127, -0.018676566, 1.3050392},
     {1.0939668, -1.3030745, 0.5573601}},
    {{1.2388588, 0.013117866, -0.25096333},
     {0.01338488, -0.178112, 1.1905392},
     {1.3013475, -1.0234193, 0.902051}},
    {{0.5918233, 0.52654696, -0.14226715},
     {-0.0009667847, -0.3642354, 1.3003534},
     {0.03904756, -1.3047327, 1.2908654}},
    {{-0.2001908, 0.2358606, -0.4050227},
     {-0.38156945, -0.16853265, 1.1438473},
     {-0.1686325, -1.3030722, 1.3025088}},
    {{0.20417346, 0.00019041028, 0.15195839},
     {-0.033522345, -0.07376109, 0.86933416},
     {0.4442995, -1.3053629, 0.7941144}},
    {{4.0662566e-05, -0.00079994794, -0.3839576},
     {0.011160068, -0.002402423, 0.8945803},
     {0.6874208, -1.0209632, 0.7725044}},
    {{0.4750267, 0.38879323, -0.110121675},
     {-0.012778446, -3.206104e-05, 0.2450084},
     {0.374443, -0.2419863, 0.40170118}},
    {{-0.0026187035, 0.4027005, -0.2540829},
     {-1.0173345, 0.075260445, 0.98346305},
     {-0.07505501, -0.5799387, 0.49203724}},
    {{8.799944e-05, 0.54154354, -0.4918722},
     {-1.302525, -0.04795252, 0.74998945},
     {0.013324439, -0.94599605, 0.06449691}},
    {{0.011230934, 0.14671026, -0.17429557},
     {-0.8729042, 0.60254294, 1.1866181},
     {0.57558954, -0.09517781, -0.0776981}},
    {{-1.73248e-06, 0.37164596, -0.21076986},
     {-0.9746834, 0.3352861, 1.301512},
     {-0.010452967, -0.6309292, 0.38762462}},
    {{-0.0024441471, 0.021469686, 0.023512993},
     {-0.76875776, 0.034000497, 1.3024946},
     {0.1535821, -0.28145266, 0.29862705}},
    {{-0.007603996, 0.69606155, -0.1286945},
     {-0.4095907, 0.49474677, 1.3042421},
     {0.0017015813, -0.14471588, 0.8831637}},
    {{0.024880176, 0.49116072, -0.3934264},
     {7.652165e-06, -6.0875177e-06, 1.3035755},
     {0.42701882, -0.8761743, -0.0029373667}},
    {{-0.14397322, -1.321146e-05, -0.08968414},
     {-0.09018531, 0.45513907, 1.3051803},
     {-0.0114052445, -0.35415846, 0.030561244}},
    {{-0.4526675, 0.2577438, -0.103759594},
     {0.0721189, 0.26852927, 1.3011612},
     {1.1991222, -1.1411887, 0.26696333}},
    {{-0.021969171, 0.44197133, -0.64809394},
     {0.05274776, 0.2283665, 1.3017427},
     {0.8087209, -1.1493349, 0.009006123}},
    {{-0.07070281, 0.19862352, 0.81644714},
     {-0.86513734, 4.595156e-05, 1.302257},
     {-0.20419316, -1.3037356, 0.44202724}},
    {{-0.1110469, 0.81232744, 0.06577784},
     {-1.0227354, 0.31681117, 1.302471},
     {-0.16801193, -1.3037589, 0.08056327}},
    {{1.1198283, -7.94393e-05, -0.9719366},
     {-0.09779166, -0.025669577, 0.6948563},
     {0.08880211, -1.3019087, -0.050193213}},
    {{0.78224355, 0.39897415, -0.4558918},
     {-0.6547871, -0.106303826, 1.3060138},
     {0.24973324, -1.3032262, 0.1865848}},
    {{0.3862179, 0.53936887, -0.39469934},
     {-1.2001917, -0.5098012, 1.3028474},
     {-0.03181716, -1.3041488, 0.92614424}},
    {{0.031542692, 1.0441993, -1.3077214},
     {-0.039562352, -0.00920273, 1.3036747},
     {0.55415374, -1.3003397, 0.0037721435}},
    {{0.58369493, 0.62339413, -0.6247846},
     {0.11876473, 0.79339516, 1.3025342},
     {0.62481165, -0.9473519, 1.3020862}},
    {{0.0496378, -0.8534364, -0.43003124},
     {-0.17008902, -0.6616005, 0.7890082},
     {0.4045482, -0.00038777065, 1.2076875}},
    {{-0.3799025, -1.2462507, -0.8134306},
     {-1.3025266, -1.3039246, 0.8237882},
     {0.10606708, -1.302754, 1.3023791}},
    {{0.71178705, -0.00582397, -0.23092498},
     {-1.3023888, -1.3034103, 1.3059347},
     {-0.053182475, -1.3011988, 1.3017315}},
    {{-0.045661308, -0.16736664, -0.15222645},
     {-1.3016754, -1.3033719, 1.301783},
     {0.045063984, -1.3015758, 1.3022727}},
    {{0.006656024, -1.0173801, 1.0428339},
     {-1.3020169, -0.5743087, 1.302879},
     {-0.01886436, -1.3029222, 1.3017528}},
    {{-0.9370951, -0.19545142, -0.013034202},
     {-1.302862, -0.5176017, 1.3014281},
     {0.7323781, -1.3019347, 1.302713}},
    {{-0.013709002, -0.11063968, 0.6297653},
     {-0.8314861, -0.71300566, 1.3049458},
     {0.5231123, -0.970602, 1.3053116}},
    {{-0.044180334, 0.28294882, 0.016160699},
     {-1.302561, -0.8912791, 1.3047714},
     {-7.103492e-06, -1.1158749, 1.3027911}},
    {{-0.68110865, -0.80800927, 0.843585},
     {-1.3018154, -0.0064171054, 1.3035316},
     {0.7776899, -1.3013637, 1.3034348}},
    {{-0.29492545, -0.20597391, 0.7246255},
     {-1.3055636, -0.30168414, 1.3023263},
     {-0.16097157, -1.3055787, 1.302124}},
    {{-0.2335159, 0.3932494, 0.3807476},
     {-1.1836503, -0.2534077, 1.3013277},
     {0.8043271, -1.0856895, 1.3068541}},
    {{-1.0559733, -0.0004612825, 0.4142946},
     {-1.304314, -0.5821997, 1.3033904},
     {0.49917117, -0.42214736, 1.3032949}},
    {{-0.82558537, 0.07403976, 0.46409315},
     {-1.3047421, -0.79538435, 1.3023565},
     {-1.6857246e-08, -0.55651796, 1.3031595}},
    {{-1.1899412, -0.17667302, 0.8203781},
     {-1.3048186, -0.6086849, 1.3055953},
     {-0.015972525, -0.7313429, 1.3019351}},
    {{-1.2149779, -0.11583557, 0.8223777},
     {-1.2743964, -0.25743073, 1.3031248},
     {0.042270016, 0.0014044055, 1.3032485}},
    {{-1.3024939, 0.047550593, 0.6442005},
     {-1.3030341, -0.11238262, 1.300656},
     {-0.0050482973, -0.29798454, 1.3024608}},
    {{-0.8570918, -0.07304015, 0.038781013},
     {-1.3015001, -0.32432783, 1.3049756},
     {0.0099535175, -0.2810539, 1.3068372}},
    {{-0.10845461, -0.0018457229, 0.61369544},
     {-1.30352, -0.80909336, 1.3022106},
     {-0.04649683, -0.7880371, 0.6888266}},
    {{-0.80324095, 3.897508e-08, 1.002608},
     {-1.3015817, -0.9970562, 1.3005404},
     {-0.8533596, -1.3026016, 1.3037884}},
    {{-0.6144891, -0.060171597, 0.31908062},
     {-0.9577674, -0.26879045, 1.3050793},
     {-0.004583901, -1.2448016, 0.68322104}},
    {{-0.30226517, 0.07748337, 0.1996553},
     {0.00052926526, -0.61321825, 1.3043385},
     {0.17641899, -1.2811558, 0.34769264}},
    {{-1.3045124, -0.35285783, 0.8195448},
     {-0.95663923, -0.50957656, 1.3025093},
     {-0.13340907, -0.3469116, 1.2634594}},
    {{-1.3020641, 0.24592279, 0.425897},
     {-1.302567, -0.04878999, 1.3012516},
     {0.07800782, -0.34212372, 1.2185369}},
    {{-1.3041792, 0.030512312, 0.92558366},
     {-1.3036951, -0.26788697, 1.3003589},
     {-0.10706046, -0.7810085, 0.8570239}},
    {{-1.3026135, -0.24043383, 0.36459345},
     {-1.3037102, 2.2248217e-07, 1.3050592},
     {-0.15798286, -1.0023097, -7.64657e-05}},
    {{-0.08572976, -0.0134152705, -0.13636486},
     {-0.9924599, -0.38184094, 1.3019031},
     {0.4115294, -0.8726923, 0.6864186}},
    {{-1.3016174, 0.40076894, 0.7287697},
     {-1.3052096, 0.71399736, 1.303714},
     {0.44608238, -0.39733008, 0.8646432}},
    {{-0.8844383, 0.10668261, -0.48575047},
     {-0.90866476, 0.4018999, 1.3023416},
     {0.0050466103, -0.9446941, 0.8530324}},
    {{-1.303877, -6.0853276e-06, 0.19020125},
     {-1.3034312, 0.27348277, 1.3013588},
     {-0.006838641, -0.6605032, 0.88557243}},
    {{0.0012657794, 0.0520363, -0.71480435},
     {-1.3025901, 0.5303553, 1.3016407},
     {-0.4156866, -0.76759815, 1.3026143}},
    {{-0.028139703, 0.106550604, 0.7033594},
     {-1.3022397, 0.4666962, 1.3056064},
     {-0.2534823, -0.9926973, 1.303346}},
    {{-0.5734308, 0.15492056, -0.22864453},
     {-1.3082229, 0.2004184, 1.302707},
     {-1.1068634, -1.2176068, 1.3031273}},
    {{-0.47474265, 0.16920297, 1.2307739},
     {-1.3029472, 0.19472863, 1.3045676},
     {0.93568975, 0.06727662, 1.302566}},
    {{1.3023999, -0.39319256, -6.9883725e-05},
     {-1.3076371, -1.3023106, 0.25916538},
     {0.65948987, -1.3057817, 0.62699276}},
    {{0.34331188, -0.37484986, -0.4409918},
     {-1.3049757, -1.3022509, 0.2932967},
     {-0.5634508, -1.3040236, 0.79078346}},
    {{0.8948735, 0.009133216, 0.12566808},
     {-1.3019894, -1.3032272, 1.3034177},
     {-0.33942768, -1.3032404, 0.98464}},
    {{-0.34203553, 0.65880287, 0.62077415},
     {-1.3032014, -1.3010547, 1.3048016},
     {-0.15021718, -1.3047978, 1.3020715}},
    {{4.602118e-07, 0.11613216, 0.0113775125},
     {-1.3032075, -0.037982523, 1.3011582},
     {0.005279028, -1.3020883, 1.0384556}},
    {{-0.3520649, -0.068891995, 0.43955714},
     {-1.2791885, -0.4783761, 1.3044506},
     {0.00057377096, -1.3017297, 1.2670876}},
    {{-1.71317e-05, 0.121041685, 0.7036444},
     {-1.3022063, -0.051702313, 1.3011583},
     {1.2972136e-07, -1.3037431, 1.3009204}},
    {{-0.013773103, 0.12017992, -0.47979885},
     {-1.303253, -0.71115816, 1.3036827},
     {0.00428893, -1.3043461, 1.3029057}},
    {{-0.22970766, -0.006951177, 0.17865236},
     {-1.3032439, 0.004816316, 1.3034998},
     {-0.66583455, -0.43064365, 1.3035798}},
    {{0.14858013, 0.9292761, 0.35322148},
     {-1.2253708, -2.9369982e-08, 1.3039248},
     {-0.6381989, -0.70196885, 1.3018208}},
    {{0.08086046, 0.5988327, -0.004295559},
     {-0.9475971, -0.23861985, 1.3032956},
     {0.2983283, -1.2292707, 1.3051381}},
    {{-0.18995431, 0.39434126, 0.31323773},
     {-1.3021424, -0.7277611, 0.6558315},
     {-0.14452654, -1.0561943, 1.3052994}},
    {{-0.28731966, 0.25426084, 0.05110814},
     {-1.2436937, -1.2978541, 1.304926},
     {-0.3720757, -1.0096933, 1.2533234}},
    {{-0.0012442314, -0.0023471604, 0.00064515544},
     {-1.3037373, -0.8676846, 0.43047556},
     {-0.5264405, -0.6939631, 0.852654}},
    {{0.0067454344, -0.04144868, -1.3019084e-06},
     {-1.0782205, -1.1803993, 0.7825868},
     {0.101966575, -0.929629, 1.1810378}},
    {{-0.16052325, 0.12615721, 0.12475564},
     {-1.3008983, -0.9849327, 1.3058982},
     {0.43016377, -0.74990577, 1.3027577}},
    {{-0.0056819376, 0.030083442, 0.06328379},
     {-0.48916763, -0.23398125, 1.229903},
     {-0.057548728, -0.15659888, 0.4150769}},
    {{0.010244991, 0.3292802, 0.46178657},
     {-0.41607243, -0.15280278, 1.3019723},
     {0.62994826, -0.08109844, 0.2604529}},
    {{-0.23891011, -0.06597179, 0.33361116},
     {-1.3024796, -0.7438061, 1.3019223},
     {0.21622165, -0.40305015, 0.5615532}},
    {{-0.4857236, 0.35500598, 0.107188754},
     {-1.2402275, -0.68556553, 1.3091333},
     {-0.028663578, -0.9946045, 0.8094159}},
    {{0.16206425, -0.14683563, 7.057313e-05},
     {-0.33536586, -0.51807195, 1.3049285},
     {0.62670696, -1.3011737, 0.2964065}},
    {{-0.0023142118, 0.13546342, 0.4632609},
     {-1.0641567, -0.8843626, 1.3020033},
     {-0.4425188, -1.3011805, 0.49181202}},
    {{0.21935084, -0.6444533, 0.6607246},
     {-1.3011787, -1.3017921, 1.3030214},
     {-0.20408387, -1.3021394, 1.0602594e-06}},
    {{0.64990604, 0.33587906, 1.075739},
     {-1.3012427, -0.5888286, 1.3033719},
     {-0.14073956, -1.3011618, 0.56105334}},
    {{-0.022428535, 0.29037598, 0.58123046},
     {-1.3007928, -0.032194328, 1.3031907},
     {0.16268475, -1.3025483, 1.3033538}},
    {{-1.1102465, -0.06843386, 0.6269216},
     {-1.3053293, -0.32160237, 1.3009394},
     {-0.22769392, -1.1475868, 0.70556015}},
    {{-0.40377823, -0.021375269, -0.11037332},
     {-1.3020042, 0.21078934, 1.303381},
     {-0.4285731, -1.1004301, 1.3018084}},
    {{-0.21902645, 0.4570206, 0.24725258},
     {-1.3035662, 0.14264004, 1.3026605},
     {-0.83361226, -1.3028457, 1.302203}},
    {{0.02745886, 0.43239185, 0.25988576},
     {-0.5219289, -0.5399137, 1.3034959},
     {-0.26947278, -1.304487, 0.8815073}},
    {{0.46622497, -0.39261803, -0.58961797},
     {-0.7896239, -0.41973454, 1.3011446},
     {-0.12207429, -1.303759, 0.5149039}},
    {{0.6574835, -0.37698403, -0.5058237},
     {-1.3017967, 0.09615751, 1.3021451},
     {-1.3031358, -1.3048449, 1.302184}},
    {{-0.05054008, -0.22152446, -0.16950282},
     {-0.4385937, 0.7132981, 1.3029149},
     {0.056701213, -0.036743537, 1.3039057}}},
   {{{0.34876877, -1.3006088, -1.0439725},
     {-0.9862709, -1.3057468, -1.3044207},
     {0.41315585, -1.3042253, -1.3031375}},
    {{0.330649, -1.3033122, -0.3835244},
     {-1.0392911, -1.3043746, -1.3060296},
     {0.09025664, -1.3019619, -0.6578994}},
    {{0.52985734, -1.1332631, -0.13134743},
     {-0.06748813, 0.40801755, -0.66973734},
     {0.40280402, -0.8323644, 0.0040525184}},
    {{0.13115877, -0.79225457, -0.053730004},
     {-1.1867329, 0.537607, -0.98615617},
     {-1.3018891, -1.302827, -0.11862154}},
    {{0.1492659, -0.4689634, -0.27214712},
     {-0.27993366, 1.3003159, 1.3062303},
     {-0.85008645, 0.01755869, 0.688449}},
    {{0.917693, 0.23701997, 0.56321055},
     {-0.2633916, 1.3028927, 1.287037},
     {-0.6647696, -0.4421705, 1.1769383}},
    {{0.23521763, -0.37524858, 0.37342283},
     {-0.525722, 1.3025547, 0.5048312},
     {-0.0133272065, -1.1488962, 1.3016188}},
    {{0.8265589, 0.113363735, 1.2644515},
     {-0.026393738, 1.3018423, 1.3009728},
     {0.25498912, -0.1830173, 1.3026633}},
    {{0.62296134, 0.3485603, 1.3056084},
     {-0.021500563, 1.3018235, 1.304236},
     {0.16205978, -4.1001593e-05, 1.303193}},
    {{0.18630078, 0.09934027, 0.8961326},
     {-0.15547495, 1.3030145, 0.928436},
     {-0.62141615, -0.24578345, 0.21076846}},
    {{0.013030284, -0.0039692856, 0.2500018},
     {-0.0147813205, 1.3021607, 1.1679496},
     {-0.44664252, -0.021056699, 0.14621192}},
    {{-0.050660137, 4.3115865e-06, -0.35034177},
     {-0.62888986, 1.3018714, 0.56105995},
     {-0.22986883, -1.0294702, 0.6964078}},
    {{0.17394651, -0.027050631, 0.39004532},
     {-0.40947646, 1.3013546, 0.3243553},
     {-1.0581846, -0.7203194, 1.0443441}},
    {{0.00028547057, 0.0040290947, 0.2073608},
     {-0.1086392, 1.301311, -0.0014392419},
     {-1.2396356, -0.4103894, 0.6335522}},
    {{-0.022424256, 0.18422616, 0.5832764},
     {-0.37752718, 1.3013841, 0.11291202},
     {-0.209246, -0.506282, 0.4449657}},
    {{0.21816558, 0.121695876, 0.23809314},
     {-0.54134667, 1.3034898, -0.009264289},
     {-0.69622886, -0.12259655, 0.30854568}},
    {{0.23714522, 0.40109548, -0.11339851},
     {-1.0381013, 1.3037021, 0.8117031},
     {-1.301098, -0.12805474, 0.07756584}},
    {{-0.051263437, 0.32178375, -0.21343352},
     {-0.13442191, 1.3034245, 0.57469845},
     {-0.7660804, -0.0038480735, 0.44805276}},
    {{-0.009256452, 0.62866193, -1.0173992e-07},
     {0.01763406, 1.3046601, 1.0432457},
     {-1.184498, -0.047436353, 0.0007142576}},
    {{0.0072055147, -0.017173754, 0.14089875},
     {-0.7892019, 1.3026251, 1.3048198},
     {-1.249226, -0.16562264, 0.21969046}},
    {{0.037802808, 0.16435128, -0.37004966},
     {-1.304733, 1.3045439, 0.088911384},
     {-1.3039219, -0.982513, -0.017332422}},
    {{0.19976985, -4.556339e-06, -0.0521184},
     {-1.1008962, 1.0212414, 0.32000768},
     {-0.6774899, -1.0678884, 0.40656}},
    {{0.18311575, 0.21848436, 0.013198818},
     {-0.8003332, 1.3002932, 0.6122922},
     {-0.19393726, -1.3013934, 0.09801894}},
    {{0.293931, 0.11444201, 0.42167574},
     {-0.5654567, 1.3020024, 1.2702956},
     {-0.04712196, -0.58188105, 0.36904415}},
    {{0.27573976, 0.62874955, 0.7956603},
     {-0.9810784, 1.3029456, 1.059907},
     {-0.91620284, 6.426486e-05, -0.03175796}},
    {{0.27422392, 1.1667206e-06, -0.0047654565},
     {-0.6273026, 1.3035315, 0.81248045},
     {-1.2043161, -0.51482826, -0.032852486}},
    {{-0.039931238, 0.035162892, 0.66487324},
     {-0.5697924, 1.3037552, 1.3063592},
     {-1.0973711, -0.22773974, 0.2845933}},
    {{-0.11722035, 0.44885704, 0.5962576},
     {-0.6934918, 1.301151, 1.3049659},
     {-1.3008742, -0.22681092, -0.07647107}},
    {{0.6343226, 0.287994, -0.14492054},
     {-0.05197527, 1.30563, -0.034010164},
     {-0.5802914, -0.58662885, -0.0028262972}},
    {{0.5719154, 0.09638066, 0.00073880405},
     {-0.76186484, 1.3033143, -0.46963537},
     {-1.3015316, -1.3011609, -1.30146}},
    {{-0.1754914, 0.36568615, 0.10183299},
     {-0.055540867, 1.1338466, 0.3623966},
     {-1.3032377, -1.302914, -1.3012757}},
    {{0.6189798, 0.9383627, 1.009219},
     {0.96439064, 0.28249604, 0.93664926},
     {2.7911196e-05, -0.5747629, -0.40569192}},
    {{0.5983953, -1.3041222, -1.3044256},
     {0.02117143, -1.3037863, -1.3021483},
     {1.3037266, -1.3027282, -1.2137933}},
    {{0.20202702, -1.3030362, -1.3039534},
     {1.3040202, 0.49772516, -1.208737},
     {1.3029587, -0.17892124, 0.213558}},
    {{0.2731169, -1.3020971, -1.3041987},
     {1.303708, 1.3019764, -0.66103846},
     {1.3021827, 0.586401, 0.76072425}},
    {{0.093241796, -1.3020049, -1.3011141},
     {0.90717965, 1.3030701, -1.1757191},
     {1.30134, 0.06292815, 0.78832144}},
    {{1.1772175, -0.9416255, -1.0604055},
     {1.3047277, 1.3019493, -0.022159733},
     {1.3032423, 0.073011726, -0.29011375}},
    {{0.00077922875, -1.1150763, -1.3004893},
     {0.092492156, 1.3021935, -1.0420938},
     {0.90789884, -0.07532603, -0.58226454}},
    {{-0.00079354364, -0.4085528, -1.3035338},
     {1.0350096, 1.3013251, -1.2986302},
     {0.6230269, -0.013963739, -0.84110326}},
    {{0.93592435, -0.025287433, -0.74863094},
     {1.3037465, 1.3054348, -1.3039876},
     {0.20733258, -0.33268604, -1.0912057}},
    {{1.3017547, 0.001611857, -0.3798813},
     {1.301808, 1.3012599, -0.8608645},
     {1.3038152, 0.89639, -1.0635723e-07}},
    {{0.761622, 0.009859282, -0.6808123},
     {1.3022951, 1.3004801, -0.61122274},
     {0.8930489, -0.13044213, -0.47817284}},
    {{0.90383136, -0.20763364, -0.580801},
     {1.3003279, 1.3036877, 0.008278236},
     {0.15274857, -0.06758329, -0.61653894}},
    {{1.3036246, -0.23791638, -0.28008792},
     {1.3046796, 1.303008, -0.024933228},
     {1.0514171, -0.1599966, -0.7266071}},
    {{1.3021744, 1.1093138e-08, -0.34984815},
     {1.0915204, 1.3018208, -0.36255202},
     {0.64778686, 3.6481288e-07, -0.3209595}},
    {{1.3032813, -0.22617614, -0.583393},
     {1.3018389, 1.3020816, -0.14043932},
     {8.1376264e-08, -0.10507283, -0.35322002}},
    {{1.152237, -0.4192497, -1.24306},
     {1.3028771, 1.3051537, 0.010703009},
     {0.05095798, 0.01248604, -0.8546078}},
    {{0.2939787, 0.0021483116, -1.3025271},
     {1.2233541, 1.3020629, -0.35234654},
     {0.0030117957, -0.39888978, -0.3430734}},
    {{-0.055826694, -0.28593326, -1.3028749},
     {0.535708, 1.3028886, -0.37756848},
     {-5.089735e-08, -0.19919941, -0.25666058}},
    {{0.95123786, 0.030976668, -1.016137},
     {1.3047227, 1.3034127, -0.6587416},
     {0.6122871, -1.9450865e-06, -1.1962013}},
    {{0.6373868, -0.25235653, -0.9109551},
     {0.2903567, 1.3049841, -0.7359556},
     {0.4663543, -7.936682e-05, -0.709983}},
    {{0.0018315294, -0.72071385, -1.0339265},
     {0.5605114, 1.3009588, -0.035164233},
     {0.049437333, -0.5137932, -1.0401295}},
    {{0.05831958, -0.8782174, -1.3028126},
     {0.13922198, 0.82705045, -0.76287663},
     {0.461981, 0.048385363, -0.7523904}},
    {{0.015730543, -0.7193735, -0.98909324},
     {1.0711066e-07, 1.3016849, -0.30136016},
     {0.01244361, -0.8571846, -0.4688271}},
    {{-0.049322736, -0.061389193, -0.99198085},
     {0.51189965, 1.0526925, -0.45491505},
     {-0.00022039951, -0.8130029, -0.55393344}},
    {{-0.071334355, -0.7310445, -0.87725806},
     {-0.0081567755, 1.301491, -0.23653539},
     {0.031213092, -0.13175131, -0.49279186}},
    {{-0.012519403, -0.9132675, -1.0257559},
     {0.4703452, 1.3014389, 0.04272359},
     {0.046185654, 0.3479931, 0.022763}},
    {{-0.022369025, -1.029435, -1.0397509},
     {-0.010037792, 1.302302, 0.08755401},
     {-0.17239928, -0.001413254, -0.5604984}},
    {{0.33044904, -0.2517128, -0.3747685},
     {0.273829, 1.3002306, 0.00089045183},
     {-0.38428563, 0.008364591, -0.34584624}},
    {{0.011799189, -0.43222573, -0.24604982},
     {-0.44021943, 1.3050134, -0.12731506},
     {-0.00036413127, 0.7358062, 0.0037789708}},
    {{-0.28852674, -0.9171899, -0.6823316},
     {0.1610753, 1.3046027, 0.07723159},
     {-0.027163638, -0.030913554, 0.013674796}},
    {{0.23099416, -0.5882183, -0.6735497},
     {0.8311036, 1.3027184, 0.544158},
     {-0.11989842, -0.04794116, -0.1407352}},
    {{0.23264803, -0.035462566, -0.7810025},
     {1.3022244, 1.3024098, 0.69091904},
     {-0.0025581424, 0.1134912, -0.90308565}},
    {{1.3033876, 0.78781146, 0.54195994},
     {0.5152388, 0.5327886, 0.28804168},
     {0.0061420687, -0.40451494, -0.8210846}},
    {{-1.0238649, -1.3017278, -1.3046722},
     {-1.1466526, -1.3035406, -1.3029166},
     {0.08006889, -1.3026814, -1.301956}},
    {{-1.083539, -1.3047767, -1.1874708},
     {1.3012083, 0.8238017, -0.17705509},
     {1.3026683, 1.0692328, 1.3029433}},
    {{-1.3008943, -1.3050922, -1.3055671},
     {0.8376529, 1.3045329, -0.01612252},
     {1.3003986, 1.2777799, 1.3023679}},
    {{-1.3028482, -1.3018383, -1.3050004},
     {-0.059825152, 1.3026899, 0.095708445},
     {1.3028483, 1.3034827, 1.3030585}},
    {{-1.3044844, -1.3015609, -1.0484692},
     {-0.04669381, 1.3017635, -0.10489819},
     {1.3046895, 0.75069255, 1.3052092}},
    {{-1.0242865, -1.3061982, -1.3008984},
     {-0.010257153, 0.99883133, -0.056082584},
     {0.9809708, 0.00012442535, 0.75568044}},
    {{-0.2823498, -0.9454349, -0.023368068},
     {0.49949571, 1.3044338, 0.42053014},
     {0.6360926, 0.4950914, 0.47663933}},
    {{-0.85157526, -1.3028114, -1.0742188},
     {-0.058602042, 1.3005106, 0.25221223},
     {0.8940435, 0.46407214, 0.69869715}},
    {{-0.1920018, -1.3023673, -1.0405555},
     {-0.14382644, 1.3014235, 0.04387027},
     {1.1162195, 1.1104918, 0.72247285}},
    {{-0.23027197, -0.71325314, -0.6369314},
     {-0.025503771, 1.3016429, 4.296228e-07},
     {-0.02171023, 1.3004873, 0.42482758}},
    {{-0.08867968, -0.15042643, -0.24739283},
     {0.021519003, 1.3006834, 0.47579592},
     {0.7116116, 1.2605734, 0.7912502}},
    {{-0.7811265, -0.99758416, -0.71682477},
     {0.037829287, 1.3024602, 0.9443296},
     {-3.2842635e-09, 1.3053613, 0.9848027}},
    {{-0.3540276, -0.7770652, -0.6432586},
     {8.2992955e-07, 1.3039297, 0.07282499},
     {-0.00019242818, 0.9312077, -0.0008718094}},
    {{-0.9163904, -0.80437964, -0.0015456374},
     {-0.24541493, 1.3033515, 0.07120242},
     {-0.08009008, 1.3028437, 0.5902294}},
    {{-0.45132965, -0.0012076957, 0.00043741838},
     {0.1834154, 1.3014766, 0.09391872},
     {0.62426186, 1.3044465, 1.0972291}},
    {{-0.027097205, -0.9791953, -1.2587855},
     {0.08722875, 1.3033198, -0.02357675},
     {0.0024832494, 1.3032528, 0.5951712}},
    {{-0.23201892, -1.2402166, -1.0480934},
     {-0.043435432, 1.3022329, 0.26106873},
     {-0.058434967, 1.3053656, 0.000748327}},
    {{-0.11309227, 0.036131024, -0.09426204},
     {-0.042624954, 1.3021675, 0.622293},
     {0.38439676, 1.2067838, 0.64135826}},
    {{-0.16699278, -0.08738362, -0.55340713},
     {0.26896444, 1.3035827, -0.013503585},
     {0.76299137, 1.3003721, -0.015025927}},
    {{-0.48238698, -0.004888585, -1.0578785},
     {0.67638665, 1.3035835, 0.7053871},
     {0.20819461, 1.3037002, 0.009538653}},
    {{-0.730052, -1.0190376, -1.1353006},
     {0.7838388, 1.3032581, 0.054590084},
     {-2.1824328e-06, 1.3026209, 0.71356887}},
    {{-0.96632457, -0.85177255, -1.0543005},
     {0.6018319, 1.3023998, 0.010013106},
     {-0.19791424, 1.3020442, 1.1824569}},
    {{-0.4624618, -1.0934657, -1.134836},
     {0.78550863, 1.3012642, 0.6222809},
     {0.7087063, 1.3039212, 0.8248908}},
    {{-0.72989386, -1.1503103, -1.3031821},
     {0.81997514, 1.3031046, 0.24486777},
     {1.3055197, 1.3055481, 1.0439348}},
    {{0.04420644, -0.5594618, -0.4934578},
     {1.3035414, 1.3031465, 0.9573608},
     {1.3053428, 1.3014684, 1.3056135}},
    {{-0.42659643, -1.1429852, -1.302732},
     {0.96826047, 1.3033736, 1.3005328},
     {0.0024712943, 1.1982117, 0.7374242}},
    {{-1.3046354, -1.3017833, -1.3022144},
     {0.41031343, 1.3035618, -0.5297913},
     {-0.022436501, 0.29533803, -0.0023756586}},
    {{-1.3023282, -1.3037179, -1.3053771},
     {0.36466008, 1.3018801, -0.47657573},
     {1.0857558, 1.0009449, 0.05309043}},
    {{-1.3034369, -1.3045753, -1.3016285},
     {0.7537466, 1.303921, -0.49869123},
     {1.3033128, 1.0470529, 0.3258647}},
    {{-0.7920188, -1.3054869, -1.3044424},
     {1.303727, 1.3007307, 0.99267256},
     {1.304187, 1.3026474, 0.15778697}},
    {{-0.17639233, -1.1284589, -1.3016024},
     {1.3058459, 1.3030558, 0.66192436},
     {1.3016462, 1.3030026, 0.8170005}},
    {{0.6993566, -0.32864848, 0.06411246},
     {1.1893758, 0.10020012, 1.3038964},
     {1.083342, 0.6909845, 0.959502}}},
   {{{-0.50468034, -0.64314604, -1.3015144},
     {0.3199143, -0.6160394, -1.3045908},
     {0.0138704935, 1.0895526, 1.3021346}},
    {{-0.077604845, 0.5734279, -1.3046274},
     {0.8847914, 1.3004266, -1.3016412},
     {0.9497623, 1.3058894, 1.3013358}},
    {{-1.3030475, 0.6772768, -1.3015485},
     {0.8598747, 1.3029441, -1.305772},
     {0.6557977, 1.3040689, 1.3043838}},
    {{-1.303124, 0.5467038, -1.3035567},
     {1.0000699, 1.3033476, -1.3024789},
     {1.2427802, 1.3038833, 1.302092}},
    {{-1.3031937, 1.3019601, -1.3023089},
     {0.36659846, 1.3028753, -1.305987},
     {-1.1452832, 1.3050789, 1.3043182}},
    {{-1.3039329, 0.12597221, -1.3046664},
     {1.3027956, 1.3021512, -1.3032187},
     {-0.34542915, 1.3033442, 1.3046418}},
    {{-1.301777, 0.11355653, -1.3061527},
     {0.38817444, 1.3034925, -1.3013997},
     {0.6074516, 1.300328, 1.3039201}},
    {{-0.6605973, 0.00091472274, -1.303571},
     {0.004930222, 1.3046722, -1.3057035},
     {-3.8604554e-05, 1.3051021, 1.3049898}},
    {{-1.3042895, 1.1153659, -1.3020287},
     {-0.29055014, 1.3041868, -1.3012509},
     {0.25695938, 1.3035116, 1.3007711}},
    {{-1.304925, 0.2349499, -1.2134084},
     {-7.7189e-08, 1.3014294, -1.3025914},
     {-0.035724998, 1.3046306, 1.2250483}},
    {{-1.3012302, 0.018121859, -0.8327092},
     {-0.045866027, 1.3028271, -1.3031358},
     {-0.0081388615, 0.8181471, 0.39724296}},
    {{-1.3051926, -0.0003693577, -0.40996262},
     {0.4807726, 1.3012816, -1.3039359},
     {-0.0005520756, 0.39442527, 1.3021163}},
    {{-1.0552914, 0.39368978, -0.94165516},
     {0.03964451, 1.3062953, -1.3044627},
     {1.934533e-06, 1.301746, 0.960904}},
    {{-0.7440497, 0.09272149, -0.5930903},
     {0.19263518, 1.3028249, -1.0591167},
     {-0.5418496, 1.301699, 1.1004943}},
    {{-0.043519024, 0.5587037, -1.3036895},
     {0.4218818, 1.3046873, -1.3034846},
     {-0.4551365, 1.3018037, 1.229204}},
    {{-0.1410843, -0.0023684786, -1.3016598},
     {-2.8743672e-08, 1.2035934, -1.3026714},
     {0.18719645, 0.6173267, 0.14927962}},
    {{-0.11859593, 0.07268529, -1.3002758},
     {0.25190467, 0.5799977, -1.3037635},
     {-0.13273033, 0.89592177, 0.066078216}},
    {{-0.6469621, -0.017933737, -1.3009022},
     {0.5867964, 0.8560257, -1.3046923},
     {0.008257967, 0.20610784, 0.60289735}},
    {{-1.3027133, 3.4879986e-07, -1.3064356},
     {0.5238152, 0.8326345, -1.304601},
     {-0.40012005, -0.015818888, -0.018568924}},
    {{-0.6446058, -7.032551e-05, -1.3035378},
     {0.5709137, 1.2289059, -1.3051667},
     {-0.37732056, 0.01963007, -3.3539558e-07}},
    {{-0.43509957, 0.067056485, -1.300332},
     {0.0008810778, 1.0455464, -1.3020818},
     {-2.1555557e-05, 0.25658897, 0.21005751}},
    {{-0.75000733, 0.00034090166, -1.3035446},
     {0.9368506, 0.8787716, -1.3066031},
     {-0.147322, 0.5394749, 0.17437033}},
    {{-1.3024198, 0.15912431, -1.3067392},
     {-0.0045856484, 0.77263314, -1.3032533},
     {-0.000830956, 1.2418034, 1.2876831}},
    {{-1.3010491, -0.02626324, -1.3022785},
     {0.70582193, 0.8778128, -1.3014339},
     {-0.024260841, 1.3024563, 1.3041899}},
    {{-1.3048613, 0.111374274, -1.3030065},
     {1.1606777, 1.3026901, -1.3020241},
     {0.5034094, 1.3003149, 0.3837685}},
    {{-1.3035308, -0.07811755, -1.3025023},
     {1.2354519, 1.3036346, -1.3028829},
     {0.06830392, 1.3018277, 0.893416}},
    {{-1.3037727, -0.6249206, -1.3021282},
     {1.3012131, 1.3043522, -1.3032497},
     {0.13523655, 1.3022858, 0.68851244}},
    {{-1.302843, 0.3584335, -1.3007267},
     {1.3020577, 1.3020775, -1.3013003},
     {-0.08958895, 1.3040159, 1.301194}},
    {{-1.3029951, -0.018249236, -1.3040832},
     {1.3032378, 1.304395, -1.3022661},
     {1.301999, 1.3023835, 1.3035928}},
    {{-1.3033435, 0.56934893, -1.3030056},
     {0.7908005, 1.3031353, -1.3074421},
     {-1.3023562, 1.3018916, 1.1375362}},
    {{-0.57838297, 0.5976, -1.3045208},
     {0.18641666, 1.3014193, -1.303489},
     {-0.7326849, 1.3039217, 1.1488173}},
    {{0.45880184, 1.302464, -1.2194817},
     {-0.44996274, 1.3005044, -1.3031439},
     {-1.10139, 1.1850256, 0.034065317}},
    {{-0.081318, 0.26639277, -1.3076162},
     {0.87104964, -0.022528889, -1.3023508},
     {-1.2858758, 0.05153155, 0.5505191}},
    {{0.48918772, 1.3025178, -1.3027185},
     {1.3006915, 1.3042866, -1.3038073},
     {-1.1321486, -0.25723997, 1.3027793}},
    {{0.07540595, 1.3036839, -1.3018248},
     {1.2077038, 1.3040104, -1.3035729},
     {-1.304768, -0.03849879, 0.5542942}},
    {{0.029485311, 1.104771, -1.0558139},
     {-0.1825906, 0.71400416, -1.3035389},
     {-0.3353224, -1.3031512, 1.1290344}},
    {{-0.5681242, 1.3033829, -0.06343972},
     {-0.053752672, 0.39433485, -1.3088759},
     {-1.3033886, -0.4435355, 0.8342679}},
    {{-0.3158423, 1.3027745, -0.6971664},
     {-0.5753423, 0.24492009, -1.306617},
     {-1.3024449, -0.18155919, 0.26322216}},
    {{0.028273607, 1.3035984, -0.69702727},
     {0.12773815, 0.29633898, -1.3023973},
     {-1.3013854, 0.08481446, 0.043257553}},
    {{-0.02448811, 0.60875154, -0.5678442},
     {-0.04167239, -0.1908994, -1.3046895},
     {-1.3029916, -0.41519427, 1.3022091}},
    {{0.009557946, 1.1771955, 0.124652},
     {-0.12404968, 0.6644449, -1.3081583},
     {-1.3052253, -0.2885966, 1.3060292}},
    {{-0.017048385, 1.1138088, -0.38459745},
     {-0.66124976, 0.7857528, -1.3024142},
     {-1.3029771, -0.004993871, 1.1560382}},
    {{0.057855066, 0.8896895, -0.008324466},
     {-0.5854775, -0.09552611, -1.3017447},
     {-1.1230159, 0.011500886, 0.56955874}},
    {{-0.00857798, 1.2421341, -0.14414981},
     {-0.27360418, 0.39161158, -1.3029796},
     {-1.3022085, -0.042206727, 0.24785766}},
    {{-0.47834498, 1.0511589, 0.03617078},
     {-0.72625905, 0.11639734, -1.3032042},
     {-1.3012283, -0.15423565, 0.20643587}},
    {{0.31902304, 0.543553, 0.000390785},
     {-0.5726606, -0.04476098, -1.3023472},
     {-0.5645421, -0.032303415, 0.06939923}},
    {{-0.074517556, 0.8897225, 0.0053710025},
     {0.033299893, -2.9393607e-07, -1.3031608},
     {-0.42534322, -0.05173447, -0.25440052}},
    {{-0.00019629685, 0.66877514, -0.21195467},
     {-0.44817013, 1.956042e-05, -1.3015754},
     {-0.9856685, -0.03438812, 0.21907938}},
    {{2.1304702e-08, 0.31301406, 0.040069584},
     {-0.13816626, 0.64379144, -1.3013501},
     {3.6174167e-06, -0.29541072, 0.68979526}},
    {{-0.29677403, 0.066210195, -0.1904103},
     {-0.3153146, 0.3861811, -1.3030503},
     {-0.16676724, -0.0026514104, 0.261894}},
    {{-0.43082675, 1.2812793, -0.16053109},
     {-0.096303605, 1.013083, -1.3066131},
     {-1.1416044, 0.005098388, 0.2850061}},
    {{-0.9262506, 0.6156297, 0.12635864},
     {-1.0693045, 0.56608075, -1.3034899},
     {-1.3030918, 0.0020839209, 0.25350985}},
    {{0.024973365, 0.7826538, -0.8242961},
     {-0.44208398, 0.0007824086, -1.3022614},
     {-0.51596403, 0.15285438, -0.23533252}},
    {{-0.06418081, 0.1988517, -0.7460182},
     {0.19276834, 2.0740768e-07, -1.3029641},
     {-1.303077, 0.34315056, 0.1419826}},
    {{0.24865057, 0.3306622, -0.3705693},
     {0.16503944, 0.24376601, -1.3029019},
     {-0.2149271, -3.7649676e-07, 0.59644234}},
    {{0.24449584, 0.41205776, -0.54582405},
     {0.12464082, -0.23866148, -1.3006914},
     {-0.81024635, -0.021479687, 5.889e-06}},
    {{-0.60439825, 0.32547134, -1.3017229},
     {0.1427044, 0.5033309, -1.3026029},
     {-1.1761214, -0.34581, 0.056775663}},
    {{0.2221563, 0.14570041, -1.3014301},
     {-1.5236643e-06, 0.014896341, -1.3046958},
     {-1.1062751, 0.1751295, -0.02193367}},
    {{-0.6386165, 0.45118806, -1.304379},
     {0.6319301, 0.06996394, -1.3043481},
     {-0.20593907, 0.30626768, -0.8020804}},
    {{0.091042034, 1.0782176, -1.3039118},
     {1.2650918, 0.5325332, -1.3035126},
     {-0.7175655, -0.0104425615, -0.03440098}},
    {{-0.50410825, 0.8988019, -1.3025243},
     {1.3044014, 0.54112685, -1.3018281},
     {-0.76030976, -0.021088203, 0.118455805}},
    {{0.53449094, 1.3058707, -1.30427},
     {1.3011905, 1.303948, -1.3022233},
     {-1.083872, 0.00036768912, 0.47929242}},
    {{1.1613015, 1.3025738, -0.72649145},
     {1.3046124, 1.3030616, -1.3076005},
     {-1.3044915, 1.1479859, -0.0015561142}},
    {{1.304278, 1.3027116, -0.72812676},
     {0.88174975, 1.3037015, -1.3041878},
     {-1.0907183, 0.86377704, 0.5437906}},
    {{-0.440711, -0.021462347, -1.3044809},
     {1.3044819, -0.13985373, -1.3021315},
     {-1.165472, -1.300889, 0.62918735}},
    {{0.36361343, 1.302346, -0.18880416},
     {1.3019121, 0.97262144, -1.3051335},
     {-0.78535974, -1.3037028, 0.4456876}},
    {{1.3039885, 1.3075081, -0.043335605},
     {1.3034097, 1.0400012, -1.3042245},
     {-0.9172294, -0.4021168, -0.13258034}},
    {{1.144891, 1.302577, -0.49254325},
     {1.1877348, 1.303506, -1.305349},
     {-1.3030958, 0.004823227, -0.6153946}},
    {{0.009590521, 0.9974586, -8.854091e-05},
     {0.11576392, 0.7009881, -1.3030552},
     {-1.3013785, -1.3057551, 0.0055126897}},
    {{0.02391328, 0.26895365, -0.2901345},
     {0.1969971, 0.03408545, -1.302032},
     {-1.2473623, -0.036754664, -0.4465706}},
    {{0.86026126, 1.3018221, 7.164746e-05},
     {0.13099056, 0.2660356, -1.3030297},
     {-0.5814385, -0.8520651, -0.0015628617}},
    {{1.0285157, 1.3017945, -0.15735257},
     {1.3028309, 0.8128399, -1.3021629},
     {-1.3005313, -1.4022853e-08, -5.2931277e-06}},
    {{0.35165465, 1.3020164, 0.56049186},
     {1.3017858, 1.0300368, -1.3031349},
     {-0.025209513, 0.0063256687, 0.024968885}},
    {{-9.850673e-05, 0.94417226, -0.7077023},
     {0.9337596, 0.60290617, -1.3015554},
     {-0.013825107, 0.00054396194, -0.6585891}},
    {{0.0014980261, 0.25954106, -0.27979112},
     {0.06417277, -0.043168914, -1.3021417},
     {-0.03790431, 0.26372492, -0.000493722}},
    {{7.5537336e-08, 0.11881342, 0.21669891},
     {0.07386299, 0.018854538, -1.3028123},
     {-0.0028842124, -0.00021161178, 0.025614636}},
    {{-0.11469775, 0.1846249, -0.074718244},
     {2.5053055e-06, 0.023952015, -1.3050411},
     {-0.28508306, 0.70034087, -0.6229686}},
    {{0.84882265, 0.12456099, -0.022762425},
     {0.21550597, 0.053574096, -1.3060167},
     {-0.52838653, 0.3177794, -0.4159107}},
    {{0.0013374955, -2.08372e-06, -0.17112455},
     {0.35852525, 0.03008182, -1.3032483},
     {0.22943577, 0.9962225, -0.21697353}},
    {{-0.12252242, 0.38742813, -0.029239122},
     {1.303355, 0.009428666, -1.3028666},
     {0.15995578, -0.1155779, 0.08068533}},
    {{0.106114276, 5.5886596e-07, 0.0082330275},
     {0.579453, 0.48831987, -1.3009119},
     {-0.11613313, 1.065892, -0.8387024}},
    {{-0.004757528, 0.05814611, -0.2519885},
     {0.2364628, -0.17935123, -1.3065305},
     {1.0111916e-05, -0.11216069, 6.574912e-08}},
    {{-0.025086, 0.61305535, 0.14738445},
     {0.114072695, 0.85764974, -1.3016486},
     {-0.00010234621, -0.39211473, -0.014100021}},
    {{-0.018377693, 1.1766449, -0.08021879},
     {0.097576834, 1.1615932, -1.3046174},
     {0.3385433, 0.025918804, -0.23589408}},
    {{0.03359185, 0.92070293, 0.03637342},
     {0.05399547, 0.31125095, -1.3034099},
     {-0.08111462, -0.3472341, -0.027543146}},
    {{-0.13156986, -9.372955e-08, 0.0010126171},
     {0.015151259, 0.37758598, -1.3050488},
     {-0.46211448, -0.008621786, 0.07622045}},
    {{0.022858491, 0.7171044, -0.4392118},
     {0.6332431, 0.693742, -1.3029485},
     {-0.6143523, 0.03126171, -0.020180343}},
    {{-0.5501965, 0.2945843, -0.060604244},
     {0.43994635, 1.0646116, -1.3034636},
     {-0.52375674, 0.00385466, -0.26198488}},
    {{-0.97803116, 0.12784128, -0.46988466},
